/*!
 * The following copyright notice may not be removed under any circumstances.
 * 
 * Copyright:
 * Copyright (c) 1992-95 ElseWare.  All rights reserved.
 * 
 * Trademark:
 * Univers Condensed is a trademark of Haas.
 */
Cufon.registerFont({"w":831,"face":{"font-family":"Univers Condensed","font-weight":400,"font-stretch":"condensed","units-per-em":"2048","panose-1":"2 11 6 6 2 2 2 6 2 4","ascent":"1638","descent":"-410","x-height":"21","bbox":"-30 -1830 1684 512","underline-thickness":"105","underline-position":"-355","unicode-range":"U+0020-U+2122"},"glyphs":{" ":{"w":453},"!":{"d":"239,-361r-38,-1053r216,0r-38,1053r-140,0xm201,-215r216,0r0,215r-216,0r0,-215","w":604},"\"":{"d":"166,-967r-39,-443r202,0r-38,443r-125,0xm477,-967r-39,-443r202,0r-38,443r-125,0","w":755},"#":{"d":"892,-1425r-360,1498r-129,0r360,-1498r129,0xm556,-1425r-360,1498r-129,0r360,-1498r129,0xm205,-1004r697,0r-28,115r-697,0xm86,-505r697,0r-28,115r-697,0","w":944},"$":{"d":"483,-1206v236,0,300,73,290,303r-176,0v8,-100,-21,-167,-114,-165v-79,1,-106,37,-107,119v0,25,9,46,27,65v17,18,58,47,122,87v95,60,161,114,200,160v38,45,57,94,57,147v0,195,-105,286,-303,286v-227,0,-317,-87,-303,-316r181,0v-3,115,5,185,122,181v90,-3,121,-40,122,-132v0,-32,-10,-59,-30,-81v-20,-21,-66,-55,-138,-101v-88,-55,-150,-107,-186,-156v-35,-48,-53,-103,-53,-166v-2,-136,143,-231,289,-231xm563,-339r0,383r-168,0r0,-383r168,0xm395,-1068r0,-358r168,0r0,358r-168,0","w":944},"%":{"d":"363,-670v-177,0,-211,-54,-211,-236r0,-304v2,-162,52,-222,211,-222v162,0,211,57,211,222r0,304v-4,186,-31,236,-211,236xm363,-1328v-61,0,-68,47,-68,120r0,304v4,91,-6,130,68,130v69,0,68,-45,68,-130r0,-304v-2,-74,-7,-120,-68,-120xm336,77r559,-1530r118,0r-559,1530r-118,0xm1007,14v-177,0,-211,-54,-211,-236r0,-304v2,-162,52,-222,211,-222v162,0,211,57,211,222r0,304v-4,186,-31,236,-211,236xm1007,-644v-61,0,-68,47,-68,120r0,304v4,91,-6,130,68,130v69,0,68,-45,68,-130r0,-304v-2,-74,-7,-120,-68,-120","w":1360},"&":{"d":"397,-811v-86,-115,-153,-190,-158,-339v-5,-171,156,-278,338,-278v195,0,338,89,338,271v0,203,-118,303,-276,387r302,381v28,-125,25,-228,25,-429r170,0v-8,335,16,398,-82,572r195,246r-209,0r-94,-118v-84,77,-218,135,-366,135v-275,0,-465,-137,-465,-399v0,-221,120,-332,282,-429xm294,-412v-3,161,113,284,273,284v100,0,219,-58,279,-117r-359,-451v-106,64,-190,140,-193,284xm579,-1285v-93,0,-171,63,-165,153v7,103,65,150,130,242v109,-58,196,-124,200,-260v2,-83,-76,-135,-165,-135","w":1246},"'":{"d":"164,-967r-31,-443r202,0r-30,443r-141,0","w":453},"(":{"d":"259,195v-83,-301,-157,-508,-157,-801v0,-290,74,-502,157,-801r130,0v-71,281,-118,497,-118,801v0,316,41,536,118,801r-130,0","w":453},")":{"d":"216,-1407v85,304,158,506,158,801v0,289,-75,503,-158,801r-130,0v71,-283,119,-497,119,-801v0,-315,-43,-536,-119,-801r130,0","w":453},"*":{"d":"677,-1362r-137,193r234,-25r0,125r-234,-26r141,189r-108,64r-99,-215r-94,217r-109,-62r137,-193r-234,25r0,-125r234,26r-141,-189r108,-64r99,215r94,-217","w":944},"+":{"d":"622,-509r-334,0r0,-124r334,0r0,-334r124,0r0,334r334,0r0,124r-334,0r0,334r-124,0r0,-334","w":1360},",":{"d":"57,211r96,-442r204,0r-174,442r-126,0","w":453},"-":{"d":"95,-583r272,0r0,154r-272,0r0,-154","w":453},".":{"d":"127,-215r216,0r0,215r-216,0r0,-215","w":453},"\/":{"d":"401,-1411r-203,1566r-124,0r203,-1566r124,0","w":453},"0":{"d":"479,21v-244,1,-373,-154,-373,-404r0,-665v1,-256,118,-377,373,-377v267,0,374,109,374,377r0,665v1,256,-124,404,-374,404xm479,-138v136,0,192,-98,191,-245r0,-665v-1,-150,-48,-222,-191,-222v-151,0,-190,63,-190,222r0,665v0,154,48,245,190,245","w":944},"1":{"d":"234,-1228v112,-60,162,-97,249,-183r146,0r0,1411r-183,0r0,-1191v-64,50,-121,85,-212,132r0,-169","w":944},"2":{"d":"488,-1425v228,0,357,114,357,339v0,112,-43,239,-129,381v-77,127,-217,310,-419,551r561,0r0,154r-741,0r0,-172v203,-238,345,-424,425,-558v80,-134,120,-252,120,-354v0,-109,-68,-190,-174,-190v-159,0,-180,81,-174,244r-183,0r0,-42v-14,-244,112,-353,357,-353","w":944},"3":{"d":"420,-833v177,6,252,-64,245,-244v-6,-137,-45,-193,-179,-194v-137,-1,-188,101,-176,251r-183,0r0,-42v-16,-237,122,-363,360,-363v240,0,370,112,361,357v-7,191,-57,283,-213,314v173,32,202,118,213,335v15,294,-105,440,-387,440v-251,0,-375,-153,-356,-419r181,0v-7,157,27,264,172,264v178,0,209,-123,209,-312v0,-153,-82,-242,-247,-225r0,-162","w":944},"4":{"d":"44,-346r0,-146r438,-919r254,0r0,911r162,0r0,154r-162,0r0,346r-183,0r0,-346r-509,0xm553,-500r0,-736r-347,736r347,0","w":944},"5":{"d":"558,-924v248,0,281,139,286,417r0,94v-4,302,-73,431,-358,434v-280,3,-353,-96,-357,-372r181,0v-3,132,33,214,157,214v184,0,190,-92,196,-301r0,-94v-3,-159,-23,-238,-166,-238v-121,0,-177,66,-174,190r-187,0r13,-831r660,0r0,159r-493,0r-7,449v69,-72,128,-121,249,-121","w":944},"6":{"d":"493,21v-279,0,-372,-161,-373,-458r0,-169v1,-339,26,-560,75,-664v49,-103,153,-155,313,-155v269,-1,367,126,352,403r-181,0v6,-146,-39,-248,-171,-249v-85,0,-141,36,-167,108v-23,62,-35,184,-37,366v81,-61,169,-92,264,-92v263,1,299,185,299,473v0,277,-110,437,-374,437xm493,-730v-156,0,-196,141,-190,318v7,190,19,271,190,274v176,4,193,-135,191,-328v-2,-169,-39,-264,-191,-264","w":944},"7":{"d":"210,0r472,-1257r-542,0r0,-154r705,0r0,154r-418,1257r-217,0","w":944},"8":{"d":"474,21v-251,-1,-371,-129,-371,-379v0,-230,54,-342,234,-381v-147,-39,-211,-140,-212,-328r0,28v-2,-238,121,-387,352,-386v245,1,353,116,353,358v0,185,-56,290,-196,329v171,39,205,129,212,350v8,246,-133,410,-372,409xm308,-1062v1,147,38,245,169,245v132,0,170,-97,170,-245r0,28v-1,-151,-34,-237,-170,-237v-126,0,-169,97,-169,237r0,-28xm663,-388v0,-188,-19,-271,-189,-271v-145,0,-188,86,-188,241v0,192,17,280,188,280v147,0,189,-91,189,-250","w":944},"9":{"d":"104,-934v-7,-302,87,-491,367,-491v150,0,251,40,303,120v52,80,79,235,78,465r0,169v-1,272,-28,455,-81,550v-53,95,-155,142,-308,142v-269,1,-367,-126,-352,-403r181,0v-6,146,39,248,171,249v94,0,153,-32,177,-96v21,-57,33,-186,35,-386v-81,67,-166,102,-256,100v-253,-5,-308,-143,-315,-419xm478,-674v157,0,197,-140,191,-318v-7,-191,-19,-271,-191,-274v-176,-3,-193,135,-191,328v2,169,39,264,191,264","w":944},":":{"d":"127,-215r216,0r0,215r-216,0r0,-215xm127,-953r216,0r0,215r-216,0r0,-215","w":453},";":{"d":"57,211r96,-443r204,0r-174,443r-126,0xm131,-953r216,0r0,215r-216,0r0,-215","w":453},"<":{"d":"410,-542r0,-144r1225,-549r0,145r-1066,475r1066,479r0,145","w":2039},"=":{"d":"288,-518r792,0r0,125r-792,0r0,-125xm288,-737r792,0r0,125r-792,0r0,-125","w":1360},">":{"d":"1635,-542r-1225,551r0,-145r1066,-479r-1066,-475r0,-145r1225,549r0,144","w":2039},"?":{"d":"578,-1094v0,-124,-13,-185,-124,-185v-123,0,-127,111,-124,249r-193,0v-17,-265,61,-402,317,-398v250,3,317,81,317,334v0,82,-12,148,-37,197v-25,49,-86,117,-170,215v-65,76,-46,141,-51,319r-158,0v9,-291,-21,-278,91,-423v95,-123,132,-135,132,-308xm326,-215r216,0r0,215r-216,0r0,-215","w":868},"@":{"d":"968,-378v1,61,10,94,64,96v17,0,32,-11,37,-36v26,-138,11,-357,11,-520v0,-312,-95,-449,-396,-449v-305,0,-397,146,-397,466r0,516v3,294,103,408,393,411v93,1,228,-20,284,-50r0,139v-63,34,-210,60,-311,59v-391,-4,-530,-156,-530,-552r0,-515v5,-434,139,-619,561,-619v416,0,558,170,560,594r0,397v-2,201,-42,307,-224,307v-83,0,-142,-56,-175,-167v-22,109,-87,167,-214,167v-178,0,-228,-117,-228,-312r0,-267v0,-177,52,-293,211,-296v82,-2,143,25,182,76r0,-55r172,0r0,610xm793,-662v-4,-129,-5,-204,-111,-204v-81,0,-110,65,-110,155r0,267v3,112,11,167,109,167v107,0,112,-75,112,-204r0,-181","w":1360},"A":{"d":"404,-1411r257,0r322,1411r-205,0r-65,-320r-378,0r-66,320r-188,0xm526,-1237r-157,758r313,0","w":1057},"B":{"d":"937,-376v0,285,-126,376,-420,376r-377,0r0,-1411r343,0v272,0,419,99,418,361v-1,200,-79,298,-252,328v209,27,288,112,288,346xm708,-1018v2,-158,-69,-233,-225,-233r-150,0r0,450r164,0v152,-1,210,-64,211,-217xm744,-402v0,-180,-65,-239,-247,-240r-164,0r0,483r184,0v165,-2,227,-74,227,-243","w":1020},"C":{"d":"524,-142v167,0,186,-132,182,-317r193,0v13,313,-69,477,-369,476v-265,-1,-389,-122,-390,-386r0,-628v2,-298,107,-429,398,-431v264,-2,376,117,361,384r0,42r-193,0v3,-168,-3,-271,-166,-267v-155,3,-206,77,-207,239r0,628v4,181,26,260,191,260","w":1020},"D":{"d":"943,-444v-2,293,-80,444,-354,444r-451,0r0,-1411r344,0v317,2,461,109,461,417r0,550xm750,-991v-3,-193,-54,-258,-244,-261r-175,0r0,1093r196,0v184,-4,223,-85,223,-282r0,-550","w":1057},"E":{"d":"133,0r0,-1411r632,0r0,159r-439,0r0,447r413,0r0,159r-413,0r0,487r452,0r0,159r-645,0","w":868},"F":{"d":"135,0r0,-1411r616,0r0,159r-423,0r0,447r404,0r0,159r-404,0r0,646r-193,0"},"G":{"d":"324,-456v4,215,27,314,220,314v73,0,139,-12,196,-33r0,-414r-216,0r0,-159r409,0r0,699v-93,43,-223,66,-389,66v-335,0,-413,-127,-413,-476r0,-520v2,-311,110,-447,413,-449v284,-2,402,123,389,412r-193,0v8,-166,-36,-256,-196,-253v-173,4,-220,104,-220,293r0,520","w":1057},"H":{"d":"133,0r0,-1411r193,0r0,606r408,0r0,-606r193,0r0,1411r-193,0r0,-646r-408,0r0,646r-193,0","w":1057},"I":{"d":"130,0r0,-1411r193,0r0,1411r-193,0","w":453},"J":{"d":"395,-142v144,0,157,-97,157,-267r0,-1002r193,0r0,1036v-1,262,-96,390,-349,392v-271,2,-362,-141,-348,-423r193,0v-6,148,21,264,154,264","w":868},"K":{"d":"341,0r-193,0r0,-1411r193,0r0,650r407,-650r213,0r-420,633r420,778r-228,0r-392,-762r0,762","w":1020},"L":{"d":"134,0r0,-1411r193,0r0,1252r410,0r0,159r-603,0","w":793},"M":{"d":"449,-1411r256,1137r247,-1137r314,0r0,1411r-179,0r0,-1225r-289,1225r-194,0r-290,-1229r0,1229r-179,0r0,-1411r314,0","w":1397},"N":{"d":"312,0r-184,0r0,-1411r305,0r364,1220r0,-1220r179,0r0,1411r-303,0r-361,-1210r0,1210","w":1095},"O":{"d":"535,17v-329,0,-401,-130,-401,-476r0,-520v2,-308,103,-449,401,-449v305,0,401,139,401,456r0,592v-2,283,-116,397,-401,397xm535,-142v164,0,208,-99,208,-278r0,-592v-3,-184,-34,-257,-208,-257v-167,0,-208,108,-208,293r0,520v5,211,21,314,208,314","w":1057},"P":{"d":"880,-1033v0,295,-128,406,-427,408r-125,0r0,625r-193,0r0,-1411r318,0v314,5,427,77,427,378xm687,-1014v0,-183,-52,-235,-234,-238r-125,0r0,468r125,0v182,-3,234,-51,234,-230","w":944},"Q":{"d":"530,-1424v281,0,401,123,401,405r0,520v1,149,-35,263,-108,342r207,-9r0,166v-191,-4,-364,21,-541,21v-307,0,-360,-143,-360,-476r0,-520v0,-289,122,-449,401,-449xm530,-1265v-167,0,-208,108,-208,293r0,520v5,211,21,314,208,314v182,0,208,-107,208,-314r0,-520v-4,-202,-26,-293,-208,-293","w":1057},"R":{"d":"925,-1073v0,220,-85,326,-277,356v196,16,232,82,240,296v3,85,4,156,12,213v10,72,18,143,38,207r-202,0v-9,-43,-15,-77,-20,-101v-33,-143,1,-385,-74,-479v-54,-67,-191,-58,-313,-58r0,639r-194,0r0,-1411r447,0v231,1,343,109,343,338xm732,-1049v0,-169,-70,-200,-250,-203r-153,0r0,454r153,0v196,-4,250,-56,250,-251","w":1020},"S":{"d":"519,-1428v297,0,379,128,366,426r-194,0v3,-163,-19,-269,-172,-267v-140,2,-196,58,-197,199v0,57,14,100,41,131v27,31,88,71,183,121v147,77,243,144,290,200v46,56,69,133,69,231v0,271,-139,404,-412,404v-320,0,-410,-161,-395,-490r196,0r0,42v2,199,21,289,199,289v159,0,220,-67,221,-228v0,-61,-16,-109,-47,-144v-31,-34,-101,-79,-209,-136v-126,-67,-214,-130,-263,-189v-49,-59,-73,-130,-73,-214v1,-256,137,-375,397,-375","w":982},"T":{"d":"399,0r0,-1252r-325,0r0,-159r843,0r0,159r-325,0r0,1252r-193,0","w":982},"U":{"d":"533,-140v160,0,201,-96,201,-271r0,-1000r193,0r0,1053v0,255,-136,375,-394,375v-259,0,-394,-120,-395,-375r0,-1053r193,0r0,1000v1,171,46,271,202,271","w":1057},"V":{"d":"259,-1411r224,1202r216,-1202r188,0r-297,1411r-237,0r-298,-1411r204,0","w":944},"W":{"d":"311,0r-238,-1411r188,0r165,1129r167,-1129r232,0r164,1116r169,-1116r186,0r-241,1411r-222,0r-173,-1164r-175,1164r-222,0","w":1397},"X":{"d":"770,0r-238,-560r-257,560r-205,0r354,-746r-313,-665r211,0r216,511r226,-511r197,0r-317,678r333,733r-207,0","w":1057},"Y":{"d":"388,-593r-324,-818r218,0r212,625r211,-625r199,0r-323,816r0,595r-193,0r0,-593","w":944},"Z":{"d":"95,-206r581,-1046r-581,0r0,-159r761,0r0,206r-581,1046r581,0r0,159r-761,0r0,-206","w":944},"[":{"d":"107,198r0,-1605r300,0r0,91r-146,0r0,1423r146,0r0,91r-300,0","w":453},"\\":{"d":"277,155r-203,-1566r124,0r203,1566r-124,0","w":453},"]":{"d":"356,198r-301,0r0,-91r147,0r0,-1423r-147,0r0,-91r301,0r0,1605","w":453},"^":{"d":"99,-1087v187,-140,260,-228,359,-449r106,0v99,222,173,310,360,449r0,94v-182,-84,-303,-156,-414,-260v-110,105,-230,175,-411,260r0,-94","w":1020},"_":{"d":"0,512r0,-105r1020,0r0,105r-1020,0","w":1020},"`":{"d":"444,-1095r-187,-309r218,0r115,309r-146,0","w":944},"a":{"d":"552,-102v-33,82,-110,123,-226,123v-159,-1,-229,-108,-228,-276v2,-292,144,-347,454,-348r0,-117v1,-88,-39,-145,-122,-145v-89,0,-130,66,-129,162r-181,0v-6,-191,114,-301,307,-300v212,2,308,89,308,299r0,704r-183,0r0,-102xm395,-117v157,0,163,-175,157,-350v-164,-9,-269,52,-269,203v0,97,23,147,112,147"},"b":{"d":"485,21v-94,2,-162,-39,-201,-109r0,88r-183,0r0,-1411r183,0r0,503v37,-63,105,-96,202,-95v192,2,253,114,254,320r0,364v-3,229,-45,335,-255,340xm284,-604v0,199,-45,487,144,487v100,0,129,-55,130,-161r0,-395v0,-115,-33,-190,-137,-190v-135,0,-137,95,-137,259"},"c":{"d":"411,-117v105,3,127,-78,120,-192r183,0v12,224,-79,331,-298,330v-223,-2,-313,-105,-314,-332r0,-327v2,-252,73,-361,314,-365v215,-2,297,104,286,325r-183,0v5,-107,-7,-188,-105,-186v-111,2,-129,63,-129,188r0,358v3,133,11,198,126,201","w":793},"d":{"d":"99,-626v1,-227,59,-377,261,-377v81,0,145,29,192,87r0,-495r183,0r0,1411r-183,0r0,-86v-53,71,-117,107,-192,107v-199,0,-260,-120,-261,-334r0,-313xm552,-675v6,-115,-30,-185,-134,-185v-112,0,-134,73,-134,201r0,354v4,133,7,186,125,186v138,0,143,-99,143,-267r0,-289"},"e":{"d":"723,-295v15,225,-94,319,-319,316v-253,-3,-321,-114,-321,-379r0,-286v0,-236,93,-359,321,-359v233,0,321,118,322,359r0,217r-460,0r0,72v6,165,-1,233,138,238v109,4,144,-63,136,-178r183,0xm404,-865v-142,-4,-139,147,-138,302r277,0r0,-78v-4,-148,-12,-220,-139,-224","w":793},"f":{"d":"545,-1284v-98,-12,-159,18,-159,118r0,184r159,0r0,135r-159,0r0,847r-183,0r0,-847r-130,0r0,-135r130,0r0,-184v1,-171,49,-255,210,-258v47,0,91,4,132,11r0,129","w":604},"g":{"d":"275,72v-6,117,12,179,127,176v115,-3,148,-43,148,-161r0,-188v-40,65,-109,103,-205,101v-196,-4,-251,-131,-251,-347r0,-367v0,-184,75,-288,252,-289v84,-1,152,32,204,97r0,-76r183,0r0,1047v0,215,-106,323,-320,323v-213,1,-305,-99,-293,-316r155,0xm550,-612v-5,-160,-6,-251,-137,-251v-99,0,-138,77,-137,186r0,337v3,136,15,200,136,200v132,0,138,-92,138,-251r0,-221"},"h":{"d":"440,-865v-115,0,-149,85,-149,214r0,651r-183,0r0,-1411r183,0r0,517v62,-69,137,-109,215,-109v153,0,240,86,239,239r0,764r-179,0r0,-707v0,-95,-37,-158,-126,-158"},"i":{"d":"102,0r0,-982r183,0r0,982r-183,0xm97,-1409r192,0r0,183r-192,0r0,-183","w":378},"j":{"d":"31,250v82,-4,76,-35,76,-131r0,-1101r183,0r0,1143v-1,157,-47,225,-197,227v-37,0,-71,-4,-100,-13r0,-127xm103,-1409r192,0r0,183r-192,0r0,-183","w":378},"k":{"d":"305,-1411r0,1411r-183,0r0,-1411r183,0xm587,0r-282,-540r259,-442r193,0r-257,442r277,540r-190,0"},"l":{"d":"104,0r0,-1411r183,0r0,1411r-183,0","w":378},"m":{"d":"414,-865v-114,0,-148,86,-148,214r0,651r-183,0r0,-982r183,0r0,89v62,-69,138,-110,217,-110v101,0,184,56,218,131v67,-79,157,-131,229,-131v159,0,250,90,249,249r0,754r-179,0r0,-706v0,-96,-38,-159,-127,-159v-116,0,-150,85,-150,214r0,651r-183,0r0,-707v0,-95,-37,-158,-126,-158","w":1246},"n":{"d":"435,-864v-116,0,-150,83,-150,213r0,651r-183,0r0,-982r183,0r0,82v60,-65,136,-102,221,-102v150,0,237,86,236,236r0,766r-179,0r0,-704v0,-97,-38,-160,-128,-160"},"o":{"d":"419,21v-235,0,-317,-131,-318,-379r0,-286v-2,-219,107,-359,318,-359v231,0,317,119,318,359r0,286v-2,254,-76,379,-318,379xm419,-117v115,0,135,-89,135,-223r0,-286v-2,-138,-20,-239,-135,-239v-117,0,-135,94,-135,232r0,286v4,149,9,230,135,230"},"p":{"d":"493,21v-95,2,-162,-32,-202,-91r0,437r-183,0r0,-1349r183,0r0,108v63,-85,135,-130,217,-129v177,3,239,127,239,320r0,364v-1,215,-58,336,-254,340xm291,-304v0,118,35,187,144,187v101,0,130,-95,130,-213r0,-364v0,-104,-34,-169,-129,-169v-114,0,-145,94,-145,224r0,335"},"q":{"d":"95,-739v-2,-161,92,-265,251,-264v76,0,144,32,203,96r0,-75r183,0r0,1349r-183,0r0,-430v-57,55,-125,83,-204,84v-166,0,-250,-110,-250,-283r0,-477xm549,-677v0,-112,-36,-186,-138,-186v-110,0,-137,71,-138,193r0,344v1,126,27,207,137,207v125,0,139,-79,139,-223r0,-335"},"r":{"d":"519,-820v-185,4,-228,83,-228,279r0,541r-183,0r0,-982r183,0r0,118v48,-77,135,-142,228,-139r0,183","w":566},"s":{"d":"386,-1003v210,0,296,92,284,306r-180,0v5,-100,-10,-168,-104,-168v-68,0,-104,31,-104,98v0,33,9,61,26,82v17,21,58,53,121,98v102,72,170,129,205,172v34,43,51,92,51,147v1,187,-115,289,-305,289v-213,0,-318,-100,-305,-321r180,0v-8,111,21,184,125,183v83,0,125,-39,125,-120v0,-35,-12,-67,-35,-95v-23,-28,-70,-66,-139,-115v-91,-64,-152,-116,-183,-157v-31,-41,-46,-89,-46,-145v0,-168,110,-254,284,-254","w":755},"t":{"d":"379,-216v3,86,49,97,146,99r0,124v-46,10,-84,15,-115,14v-157,-2,-214,-52,-214,-208r0,-660r-128,0r0,-135r128,0r0,-177r183,-76r0,253r146,0r0,135r-146,0r0,631","w":604},"u":{"d":"338,21v-153,1,-240,-86,-239,-239r0,-764r183,0r0,727v0,84,32,138,110,138v121,0,161,-82,161,-214r0,-651r183,0r0,982r-183,0r0,-82v-61,68,-133,103,-215,103"},"v":{"d":"253,-982r155,795r151,-795r184,0r-222,982r-233,0r-223,-982r188,0","w":793},"w":{"d":"256,0r-200,-982r185,0r153,851r146,-851r251,0r161,856r152,-856r165,0r-198,982r-253,0r-160,-823r-146,823r-256,0","w":1322},"x":{"d":"528,0r-135,-349r-155,349r-179,0r251,-503r-221,-479r194,0r130,321r122,-321r176,0r-217,493r221,489r-187,0","w":793},"y":{"d":"253,-982r169,728r177,-728r174,0r-368,1345r-170,0r103,-343r-271,-1002r186,0"},"z":{"d":"75,-154r361,-692r-333,0r0,-136r508,0r0,138r-360,708r365,0r0,136r-541,0r0,-154","w":680},"{":{"d":"569,95v5,177,21,216,192,220r0,155v-319,-8,-370,-56,-378,-375r0,-266v-3,-191,-42,-238,-186,-294r0,-157v136,-32,187,-128,187,-301r0,-266v5,-290,86,-370,377,-375r0,155v-183,5,-193,30,-193,220r0,266v0,176,-50,299,-152,375v99,80,153,209,153,377r0,266","w":906},"|":{"d":"458,512r0,-2048r105,0r0,2048r-105,0","w":1020},"}":{"d":"709,-465v-144,56,-184,103,-186,294v-2,194,14,496,-72,570v-51,44,-150,71,-306,71r0,-155v171,-4,192,-43,192,-220r0,-266v-1,-168,55,-298,153,-377v-102,-76,-151,-199,-152,-375r0,-266v-6,-190,-9,-214,-193,-220r0,-155v291,5,372,84,377,375r0,266v0,173,51,268,187,301r0,157","w":906},"~":{"d":"713,-589v-131,0,-184,48,-268,122r-31,-33v62,-89,117,-151,166,-187v49,-36,101,-54,158,-54v209,0,481,135,662,135v127,0,177,-50,250,-130r34,36v-76,152,-133,240,-324,244v-224,5,-447,-133,-647,-133","w":2039},"\u00d7":{"d":"679,-481r-279,279r-89,-89r279,-279r-280,-279r92,-92r279,280r279,-279r89,89r-279,279r280,279r-92,92","w":1360},"\u0415":{"d":"133,0r0,-1411r632,0r0,159r-439,0r0,447r413,0r0,159r-413,0r0,487r452,0r0,159r-645,0","w":868},"\u0401":{"d":"160,-1755r194,0r0,193r-194,0r0,-193xm481,-1755r194,0r0,193r-194,0r0,-193xm133,0r0,-1411r632,0r0,159r-439,0r0,447r413,0r0,159r-413,0r0,487r452,0r0,159r-645,0","w":868},"\u0402":{"d":"952,-470v0,-177,-27,-295,-176,-302v-66,-3,-158,25,-184,61r0,711r-193,0r0,-1252r-325,0r0,-159r843,0r0,159r-325,0r0,378v67,-36,171,-78,227,-76v246,9,322,177,326,447v3,184,-25,317,-77,398v-52,81,-138,122,-256,122v-48,0,-75,-1,-80,-3r0,-160v7,3,30,4,68,4v54,0,92,-26,116,-77v24,-51,36,-135,36,-251","w":1231},"\u0413":{"d":"326,0r-193,0r0,-1411r684,0r0,159r-491,0r0,1252","w":898},"\u0403":{"d":"365,-1521r117,-309r216,0r-187,309r-146,0xm326,0r-193,0r0,-1411r684,0r0,159r-491,0r0,1252","w":898},"\u0404":{"d":"524,-142v167,0,186,-132,182,-317r193,0v13,313,-69,477,-369,476v-265,-1,-389,-122,-390,-386r0,-628v2,-298,107,-429,398,-431v264,-2,376,117,361,384r0,42r-193,0v3,-168,-3,-271,-166,-267v-155,3,-206,77,-207,239r0,225r283,0r0,159r-283,0r0,244v4,181,26,260,191,260","w":1020},"\u0405":{"d":"519,-1428v297,0,379,128,366,426r-194,0v3,-163,-19,-269,-172,-267v-140,2,-196,58,-197,199v0,57,14,100,41,131v27,31,88,71,183,121v147,77,243,144,290,200v46,56,69,133,69,231v0,271,-139,404,-412,404v-320,0,-410,-161,-395,-490r196,0r0,42v2,199,21,289,199,289v159,0,220,-67,221,-228v0,-61,-16,-109,-47,-144v-31,-34,-101,-79,-209,-136v-126,-67,-214,-130,-263,-189v-49,-59,-73,-130,-73,-214v1,-256,137,-375,397,-375","w":982},"\u0406":{"d":"130,0r0,-1411r193,0r0,1411r-193,0","w":453},"\u0407":{"d":"-26,-1755r194,0r0,193r-194,0r0,-193xm295,-1755r194,0r0,193r-194,0r0,-193xm135,0r0,-1411r193,0r0,1411r-193,0","w":453},"\u0408":{"d":"395,-142v144,0,157,-97,157,-267r0,-1002r193,0r0,1036v-1,262,-96,390,-349,392v-271,2,-362,-141,-348,-423r193,0v-6,148,21,264,154,264","w":868},"\u0409":{"d":"1484,-427v0,312,-159,426,-481,427r-316,0r0,-1252r-284,0r0,908v0,237,-106,382,-355,361r0,-170v133,11,163,-57,162,-191r0,-1067r670,0r0,581r143,0v333,5,461,82,461,403xm1291,-416v0,-196,-68,-254,-268,-255r-143,0r0,512r123,0v193,-1,288,-70,288,-257","w":1568},"\u040a":{"d":"1531,-415v0,307,-162,414,-481,415r-316,0r0,-646r-408,0r0,646r-193,0r0,-1411r193,0r0,606r408,0r0,-606r193,0r0,605r143,0v330,5,461,77,461,391xm1338,-403v0,-191,-71,-243,-268,-244r-143,0r0,488r123,0v190,-1,288,-63,288,-244","w":1614},"\u040b":{"d":"952,-552v-1,-142,-43,-218,-176,-220v-66,-1,-158,25,-184,61r0,711r-193,0r0,-1252r-325,0r0,-159r843,0r0,159r-325,0r0,378v67,-36,171,-77,227,-76v222,4,325,104,326,326r0,624r-193,0r0,-552","w":1231},"\u041a":{"d":"842,-1086v0,185,-36,288,-173,321v161,32,202,118,223,311r30,279v9,72,17,114,39,174r-197,0v-75,-156,-36,-485,-130,-615v-53,-73,-173,-60,-293,-61r0,677r-193,0r0,-1411r193,0r0,573r90,0v190,2,228,-105,228,-305v0,-183,40,-264,210,-268r72,0r0,174v-100,-11,-99,50,-99,151","w":1020},"\u040c":{"d":"431,-1521r117,-309r216,0r-187,309r-146,0xm842,-1086v0,185,-36,288,-173,321v161,32,202,118,223,311r30,279v9,72,17,114,39,174r-197,0v-75,-156,-36,-485,-130,-615v-53,-73,-173,-60,-293,-61r0,677r-193,0r0,-1411r193,0r0,573r90,0v190,2,228,-105,228,-305v0,-183,40,-264,210,-268r72,0r0,174v-100,-11,-99,50,-99,151","w":1020},"\u0423":{"d":"274,-1411r206,686r218,-686r198,0r-452,1411r-198,0r141,-432r-323,-979r210,0","w":944},"\u040e":{"d":"742,-1811v9,196,-71,290,-262,290v-197,0,-260,-86,-262,-290r139,0v1,108,25,170,123,170v100,0,125,-61,123,-170r139,0xm274,-1411r206,686r218,-686r198,0r-452,1411r-198,0r141,-432r-323,-979r210,0","w":944},"\u040f":{"d":"133,0r0,-1411r193,0r0,1252r408,0r0,-1252r193,0r0,1411r-301,0r0,295r-193,0r0,-295r-300,0","w":1057},"\u0410":{"d":"404,-1411r257,0r322,1411r-205,0r-65,-320r-378,0r-66,320r-188,0xm526,-1237r-157,758r313,0","w":1057},"\u0411":{"d":"937,-427v0,312,-159,426,-481,427r-316,0r0,-1411r716,0r0,159r-523,0r0,422r143,0v333,5,461,82,461,403xm744,-416v0,-196,-68,-254,-268,-255r-143,0r0,512r123,0v193,-1,288,-70,288,-257","w":1020},"\u0412":{"d":"937,-376v0,285,-126,376,-420,376r-377,0r0,-1411r343,0v272,0,419,99,418,361v-1,200,-79,298,-252,328v209,27,288,112,288,346xm708,-1018v2,-158,-69,-233,-225,-233r-150,0r0,450r164,0v152,-1,210,-64,211,-217xm744,-402v0,-180,-65,-239,-247,-240r-164,0r0,483r184,0v165,-2,227,-74,227,-243","w":1020},"\u0414":{"d":"152,-159v107,-337,139,-766,142,-1252r654,0r0,1252r96,0r0,454r-193,0r0,-295r-610,0r0,295r-193,0r0,-454r104,0xm486,-1252v-10,416,-47,794,-140,1093r409,0r0,-1093r-269,0","w":1109},"\u0416":{"d":"1348,-1086v1,182,-33,286,-164,320v158,34,200,117,218,312r26,279v7,72,16,114,36,174r-197,0v-73,-155,-28,-483,-119,-615v-50,-73,-167,-60,-284,-61r0,677r-193,0r0,-677v-117,1,-234,-12,-285,61v-89,128,-47,455,-119,615r-197,0v76,-200,17,-596,161,-714v28,-23,68,-40,119,-51v-133,-34,-163,-136,-164,-320v0,-55,-4,-94,-12,-117v-12,-37,-41,-35,-84,-34r0,-174r70,0v186,-2,209,116,209,314v0,177,48,256,215,259r87,0r0,-573r193,0r0,573r86,0v183,2,215,-110,215,-305v0,-183,40,-264,210,-268r70,0r0,174v-43,-1,-73,-3,-85,34v-8,23,-12,62,-12,117","w":1505},"\u0417":{"d":"500,17v-342,0,-413,-129,-403,-476r193,0r0,42v1,195,29,271,210,275v180,4,215,-96,211,-284v-4,-171,-44,-225,-211,-228r-121,0r0,-158r134,0v160,2,203,-87,198,-255v-4,-152,-47,-200,-198,-202v-167,-2,-207,93,-198,267r-193,0r0,-42v-17,-253,136,-384,391,-384v273,0,398,101,391,375v-5,176,-61,276,-193,318v157,42,195,164,193,381v-2,255,-142,371,-404,371","w":982},"\u0418":{"d":"438,0r-305,0r0,-1411r183,0r0,1230r306,-1230r305,0r0,1411r-183,0r0,-1230","w":1057},"\u0419":{"d":"792,-1811v9,196,-71,290,-262,290v-197,0,-260,-86,-262,-290r139,0v1,108,25,170,123,170v100,0,125,-61,123,-170r139,0xm438,0r-305,0r0,-1411r183,0r0,1230r306,-1230r305,0r0,1411r-183,0r0,-1230","w":1057},"\u041b":{"d":"48,-153v133,11,163,-57,162,-191r0,-1067r700,0r0,1411r-193,0r0,-1252r-314,0r0,908v0,237,-106,382,-355,361r0,-170","w":1041},"\u041c":{"d":"449,-1411r256,1137r247,-1137r314,0r0,1411r-179,0r0,-1225r-289,1225r-194,0r-290,-1229r0,1229r-179,0r0,-1411r314,0","w":1397},"\u041d":{"d":"133,0r0,-1411r193,0r0,606r408,0r0,-606r193,0r0,1411r-193,0r0,-646r-408,0r0,646r-193,0","w":1057},"\u041e":{"d":"535,17v-329,0,-401,-130,-401,-476r0,-520v2,-308,103,-449,401,-449v305,0,401,139,401,456r0,592v-2,283,-116,397,-401,397xm535,-142v164,0,208,-99,208,-278r0,-592v-3,-184,-34,-257,-208,-257v-167,0,-208,108,-208,293r0,520v5,211,21,314,208,314","w":1057},"\u041f":{"d":"326,0r-193,0r0,-1411r794,0r0,1411r-193,0r0,-1252r-408,0r0,1252","w":1057},"\u0420":{"d":"880,-1033v0,295,-128,406,-427,408r-125,0r0,625r-193,0r0,-1411r318,0v314,5,427,77,427,378xm687,-1014v0,-183,-52,-235,-234,-238r-125,0r0,468r125,0v182,-3,234,-51,234,-230","w":944},"\u0421":{"d":"524,-142v167,0,186,-132,182,-317r193,0v13,313,-69,477,-369,476v-265,-1,-389,-122,-390,-386r0,-628v2,-298,107,-429,398,-431v264,-2,376,117,361,384r0,42r-193,0v3,-168,-3,-271,-166,-267v-155,3,-206,77,-207,239r0,628v4,181,26,260,191,260","w":1020},"\u0422":{"d":"399,0r0,-1252r-325,0r0,-159r843,0r0,159r-325,0r0,1252r-193,0","w":982},"\u0424":{"d":"134,-862v2,-282,123,-393,395,-408r0,-141r193,0r0,140v299,19,387,101,394,409r0,293v-3,291,-113,412,-394,427r0,142r-193,0r0,-142v-303,-15,-390,-111,-395,-427r0,-293xm722,-303v148,-16,201,-96,201,-264v0,-166,27,-409,-54,-490v-29,-29,-77,-47,-147,-53r0,807xm327,-567v3,182,43,250,202,266r0,-808v-145,14,-202,88,-202,249r0,293","w":1238},"\u0425":{"d":"770,0r-238,-560r-257,560r-205,0r354,-746r-313,-665r211,0r216,511r226,-511r197,0r-317,678r333,733r-207,0","w":1057},"\u0426":{"d":"133,0r0,-1411r193,0r0,1252r408,0r0,-1252r193,0r0,1252r96,0r0,454r-193,0r0,-295r-697,0","w":1057},"\u0427":{"d":"312,-935v1,131,40,201,162,203v60,1,145,-22,168,-55r0,-623r193,0r0,1411r-193,0r0,-584v-71,26,-133,39,-186,39v-230,-1,-336,-107,-337,-337r0,-529r193,0r0,475","w":951},"\u0428":{"d":"133,0r0,-1411r193,0r0,1252r408,0r0,-1252r193,0r0,1252r407,0r0,-1252r193,0r0,1411r-1394,0","w":1657},"\u0429":{"d":"133,0r0,-1411r193,0r0,1252r408,0r0,-1252r193,0r0,1252r407,0r0,-1252r193,0r0,1252r96,0r0,454r-193,0r0,-295r-1297,0","w":1657},"\u042a":{"d":"1141,-427v0,312,-159,426,-481,427r-316,0r0,-1252r-225,0r0,-159r418,0r0,581r143,0v333,5,461,82,461,403xm948,-416v0,-196,-68,-254,-268,-255r-143,0r0,512r123,0v193,-1,288,-70,288,-257","w":1225},"\u042b":{"d":"1150,0r0,-1411r193,0r0,1411r-193,0xm937,-427v0,312,-159,426,-481,427r-316,0r0,-1411r193,0r0,581r143,0v333,5,461,82,461,403xm744,-416v0,-196,-68,-254,-268,-255r-143,0r0,512r123,0v193,-1,288,-70,288,-257","w":1473},"\u042c":{"d":"937,-427v0,312,-159,426,-481,427r-316,0r0,-1411r193,0r0,581r143,0v333,5,461,82,461,403xm744,-416v0,-196,-68,-254,-268,-255r-143,0r0,512r123,0v193,-1,288,-70,288,-257","w":1020},"\u042d":{"d":"510,17v-299,1,-382,-161,-369,-476r193,0v-3,184,15,319,182,317v165,-2,191,-80,191,-260r0,-244r-283,0r0,-159r283,0r0,-225v-1,-158,-44,-237,-191,-239v-157,-2,-191,100,-182,267r-193,0v-8,-143,11,-256,86,-328v66,-64,163,-98,295,-98v281,0,378,139,378,431r0,628v-1,264,-125,385,-390,386","w":1020},"\u042e":{"d":"917,17v-329,0,-395,-130,-401,-476r0,-187r-193,0r0,646r-193,0r0,-1411r193,0r0,606r193,0r0,-174v2,-308,103,-449,401,-449v323,0,401,115,401,449r0,520v-2,319,-97,476,-401,476xm917,-1269v-167,0,-208,108,-208,293r0,520v5,211,21,314,208,314v171,0,208,-120,208,-314r0,-520v-4,-202,-26,-293,-208,-293","w":1439},"\u042f":{"d":"83,-1073v0,220,85,326,277,356v-196,16,-232,82,-240,296v-3,85,-4,156,-12,213v-10,72,-18,143,-38,207r202,0v9,-43,15,-77,20,-101v33,-143,-1,-385,74,-479v54,-67,191,-58,313,-58r0,639r194,0r0,-1411r-447,0v-231,1,-343,109,-343,338xm276,-1049v0,-169,70,-200,250,-203r153,0r0,454r-153,0v-196,-4,-250,-56,-250,-251","w":990},"\u0430":{"d":"552,-102v-33,82,-110,123,-226,123v-159,-1,-229,-108,-228,-276v2,-292,144,-347,454,-348r0,-117v1,-88,-39,-145,-122,-145v-89,0,-130,66,-129,162r-181,0v-6,-191,114,-301,307,-300v212,2,308,89,308,299r0,704r-183,0r0,-102xm395,-117v157,0,163,-175,157,-350v-164,-9,-269,52,-269,203v0,97,23,147,112,147"},"\u0431":{"d":"737,-358v2,227,-102,378,-318,379v-121,0,-202,-44,-251,-128v-100,-171,-69,-919,1,-1065v51,-108,126,-168,244,-175v82,-5,147,-16,155,-81r138,0v-14,152,-116,214,-283,222v-112,5,-151,150,-161,292v46,-59,109,-89,188,-89v216,0,286,127,287,359r0,286xm554,-641v-4,-147,-10,-224,-135,-224v-115,0,-135,89,-135,224r0,286v4,153,7,238,135,238v118,0,135,-98,135,-238r0,-286"},"\u0432":{"d":"627,-272v5,201,-76,272,-280,272r-262,0r0,-982r243,0v187,0,279,75,274,262v-3,128,-47,193,-153,217v131,21,175,79,178,231xm419,-692v2,-86,-13,-151,-91,-151r-60,0r0,272r66,0v68,-2,83,-45,85,-121xm444,-276v1,-99,-12,-159,-106,-157r-70,0r0,295r79,0v78,-2,96,-51,97,-138","w":706},"\u0433":{"d":"285,0r-183,0r0,-982r568,0r0,136r-385,0r0,846","w":741},"\u0434":{"d":"138,-136v55,-242,73,-513,74,-846r492,0r0,846r96,0r0,341r-183,0r0,-205r-401,0r0,205r-183,0r0,-341r105,0xm394,-846v-7,271,-26,501,-73,710r200,0r0,-710r-127,0","w":853},"\u0435":{"d":"723,-295v15,225,-94,319,-319,316v-253,-3,-321,-114,-321,-379r0,-286v0,-236,93,-359,321,-359v233,0,321,118,322,359r0,217r-460,0r0,72v6,165,-1,233,138,238v109,4,144,-63,136,-178r183,0xm404,-865v-142,-4,-139,147,-138,302r277,0r0,-78v-4,-148,-12,-220,-139,-224","w":793},"\u0436":{"d":"1033,-838v-81,-15,-60,79,-60,149v0,80,-31,129,-92,149v91,29,121,90,132,213r14,152v7,72,16,114,36,174r-181,0v-59,-101,-22,-338,-91,-427v-26,-34,-76,-41,-138,-38r0,466r-183,0r0,-466v-129,-8,-169,45,-180,167r-13,138v-8,71,-13,113,-37,160r-181,0v74,-164,-7,-491,182,-540v-81,-21,-92,-105,-92,-215v0,-57,-1,-89,-58,-82r0,-144v155,-7,227,33,222,187r0,79v2,92,58,111,157,114r0,-380r183,0r0,380v99,-4,154,-21,156,-114r0,-79v-3,-155,67,-194,224,-187r0,144","w":1098},"\u0437":{"d":"380,21v-255,2,-314,-86,-305,-340r183,0v-1,122,1,206,122,202v100,-4,120,-28,122,-130r0,-71v-2,-96,-27,-122,-122,-124r-91,0r0,-136r100,0v87,-1,112,-26,113,-113r0,-66v-1,-82,-29,-106,-113,-108v-101,-2,-118,63,-112,168r-183,0r0,-42v-11,-179,110,-264,295,-264v163,0,292,61,296,206r0,92v-1,113,-43,172,-131,198v82,28,132,93,131,198r0,99v-4,177,-111,229,-305,231","w":755},"\u0438":{"d":"335,0r-233,0r0,-982r159,0r0,766r245,-766r233,0r0,982r-159,0r0,-766"},"\u0439":{"d":"679,-1388v11,202,-63,290,-259,290v-195,0,-256,-87,-258,-290r139,0v1,107,23,170,119,170v98,0,122,-62,120,-170r139,0xm335,0r-233,0r0,-982r159,0r0,766r245,-766r233,0r0,982r-159,0r0,-766"},"\u043a":{"d":"122,0r0,-982r183,0r0,379v120,-1,203,-13,203,-113v0,-87,6,-186,44,-224v35,-35,112,-45,192,-42r0,144v-28,0,-51,-3,-61,18v-11,24,-10,90,-11,131v-1,79,-38,129,-104,148v100,29,139,88,153,214r17,152v9,72,19,115,39,174r-181,0v-65,-104,-21,-347,-109,-427v-35,-32,-106,-41,-182,-38r0,466r-183,0"},"\u043b":{"d":"-7,-135v94,5,125,-36,125,-130r0,-717r609,0r0,982r-183,0r0,-846r-243,0r0,581v1,195,-101,304,-308,286r0,-156","w":819},"\u043c":{"d":"279,-846v2,17,5,214,5,236r0,610r-170,0r0,-982r298,0r187,737r179,-737r298,0r0,982r-170,0r2,-744v1,-63,2,-97,3,-102v-3,17,-52,210,-57,229r-162,617r-194,0","w":1187},"\u043d":{"d":"102,0r0,-982r183,0r0,404r271,0r0,-404r183,0r0,982r-183,0r0,-442r-271,0r0,442r-183,0"},"\u043e":{"d":"419,21v-235,0,-317,-131,-318,-379r0,-286v-2,-219,107,-359,318,-359v231,0,317,119,318,359r0,286v-2,254,-76,379,-318,379xm419,-117v115,0,135,-89,135,-223r0,-286v-2,-138,-20,-239,-135,-239v-117,0,-135,94,-135,232r0,286v4,149,9,230,135,230"},"\u043f":{"d":"285,0r-183,0r0,-982r637,0r0,982r-183,0r0,-846r-271,0r0,846"},"\u0440":{"d":"493,21v-95,2,-162,-32,-202,-91r0,437r-183,0r0,-1349r183,0r0,108v63,-85,135,-130,217,-129v177,3,239,127,239,320r0,364v-1,215,-58,336,-254,340xm291,-304v0,118,35,187,144,187v101,0,130,-95,130,-213r0,-364v0,-104,-34,-169,-129,-169v-114,0,-145,94,-145,224r0,335"},"\u0441":{"d":"411,-117v105,3,127,-78,120,-192r183,0v12,224,-79,331,-298,330v-223,-2,-313,-105,-314,-332r0,-327v2,-252,73,-361,314,-365v215,-2,297,104,286,325r-183,0v5,-107,-7,-188,-105,-186v-111,2,-129,63,-129,188r0,358v3,133,11,198,126,201","w":793},"\u0442":{"d":"274,0r0,-846r-227,0r0,-136r637,0r0,136r-227,0r0,846r-183,0","w":721},"\u0443":{"d":"253,-982r169,728r177,-728r174,0r-368,1345r-170,0r103,-343r-271,-1002r186,0"},"\u0444":{"d":"101,-657v4,-226,36,-346,237,-346v90,0,153,30,189,90r0,-498r183,0r0,496v38,-59,101,-88,190,-88v183,0,236,119,237,320r0,364v-4,224,-37,334,-238,340v-88,2,-151,-38,-189,-105r0,451r-183,0r0,-451v-38,66,-101,108,-189,105v-192,-6,-237,-145,-237,-365r0,-313xm841,-117v91,0,113,-60,114,-161r0,-395v-1,-111,-24,-190,-120,-190v-49,0,-83,18,-101,55v-37,76,-24,300,-24,432v0,89,11,154,32,196v21,42,54,63,99,63xm403,-863v-100,0,-120,72,-120,187v0,161,-15,385,28,498v32,85,154,75,188,6v38,-76,26,-299,28,-432v1,-99,-7,-167,-25,-204v-18,-37,-50,-55,-99,-55","w":1231},"\u0445":{"d":"528,0r-135,-349r-155,349r-179,0r251,-503r-221,-479r194,0r130,321r122,-321r176,0r-217,493r221,489r-187,0","w":793},"\u0446":{"d":"102,0r0,-982r183,0r0,846r271,0r0,-846r183,0r0,846r96,0r0,341r-183,0r0,-205r-550,0"},"\u0447":{"d":"285,-678v0,95,29,146,118,148v45,1,103,-29,122,-57r0,-395r183,0r0,982r-183,0r0,-408v-58,24,-107,36,-148,36v-187,0,-275,-88,-275,-275r0,-335r183,0r0,304","w":789},"\u0448":{"d":"102,0r0,-982r183,0r0,846r271,0r0,-846r183,0r0,846r271,0r0,-846r183,0r0,982r-1091,0","w":1285},"\u0449":{"d":"102,0r0,-982r183,0r0,846r271,0r0,-846r183,0r0,846r271,0r0,-846r183,0r0,846r96,0r0,341r-183,0r0,-205r-1004,0","w":1285},"\u044a":{"d":"812,-309v5,229,-96,310,-328,309r-244,0r0,-846r-166,0r0,-136r349,0r0,403r72,0v232,4,312,49,317,270xm629,-278v0,-115,-19,-166,-134,-163r-72,0r0,303v126,6,206,-14,206,-140","w":907},"\u044b":{"d":"768,0r0,-982r183,0r0,982r-183,0xm673,-309v5,229,-96,310,-328,309r-244,0r0,-982r183,0r0,403r72,0v232,4,312,49,317,270xm490,-278v0,-115,-19,-166,-134,-163r-72,0r0,303v126,6,206,-14,206,-140","w":1038},"\u044c":{"d":"673,-309v5,229,-96,310,-328,309r-244,0r0,-982r183,0r0,403r72,0v232,4,312,49,317,270xm490,-278v0,-115,-19,-166,-134,-163r-72,0r0,303v126,6,206,-14,206,-140","w":767},"\u044d":{"d":"400,21v-219,1,-310,-105,-298,-330r183,0v-6,114,14,195,120,192v115,-3,123,-68,126,-200r0,-106r-215,0r0,-136r215,0r0,-121v-1,-119,-28,-183,-136,-185v-101,-2,-116,77,-110,187r-183,0v-12,-222,73,-328,291,-325v235,2,321,107,321,347r0,363v-1,214,-100,313,-314,314","w":793},"\u044e":{"d":"781,21v-265,2,-331,-178,-318,-463r-183,0r0,442r-183,0r0,-982r183,0r0,404r183,0v-16,-256,83,-426,318,-425v231,1,317,119,318,359r0,286v2,228,-102,377,-318,379xm781,-865v-115,0,-135,89,-135,224r0,286v4,153,7,238,135,238v118,0,135,-98,135,-238r0,-286v-4,-147,-10,-224,-135,-224","w":1193},"\u044f":{"d":"49,-753v-4,169,68,238,221,255v-146,10,-184,53,-191,204v-5,115,-18,206,-41,293r186,0v14,-87,33,-167,35,-268v3,-115,47,-162,165,-162r124,0r0,431r184,0r0,-982r-385,0v-166,-2,-295,77,-298,229xm232,-713v-12,-159,164,-126,316,-131r0,275r-120,0v-129,-2,-187,-27,-196,-144","w":816},"\u0451":{"d":"161,-1341r194,0r0,182r-194,0r0,-182xm480,-1341r194,0r0,182r-194,0r0,-182xm723,-295v15,225,-94,319,-319,316v-253,-3,-321,-114,-321,-379r0,-286v0,-236,93,-359,321,-359v233,0,321,118,322,359r0,217r-460,0r0,72v6,165,-1,233,138,238v109,4,144,-63,136,-178r183,0xm404,-865v-142,-4,-139,147,-138,302r277,0r0,-78v-4,-148,-12,-220,-139,-224","w":793},"\u0452":{"d":"440,-815v-103,0,-146,57,-146,164r0,651r-183,0r0,-1411r183,0r0,487v61,-53,128,-79,199,-79v162,-1,256,93,255,255r0,898v-3,173,-34,234,-198,238v-36,0,-69,-5,-100,-14r0,-126v103,8,115,-25,115,-141r0,-766v0,-94,-37,-156,-125,-156xm-25,-1147r0,-136r510,0r0,136r-510,0","w":840},"\u0453":{"d":"276,-1095r117,-309r216,0r-187,309r-146,0xm285,0r-183,0r0,-982r568,0r0,136r-385,0r0,846","w":741},"\u0454":{"d":"411,-117v105,3,127,-78,120,-192r183,0v12,224,-79,331,-298,330v-214,-1,-313,-100,-314,-314r0,-363v2,-241,86,-345,321,-347v217,-2,303,102,291,325r-183,0v5,-110,-8,-187,-110,-187v-151,0,-137,154,-136,306r215,0r0,136r-215,0r0,106v3,133,11,197,126,200","w":793},"\u0455":{"d":"386,-1003v210,0,296,92,284,306r-180,0v5,-100,-10,-168,-104,-168v-68,0,-104,31,-104,98v0,33,9,61,26,82v17,21,58,53,121,98v102,72,170,129,205,172v34,43,51,92,51,147v1,187,-115,289,-305,289v-213,0,-318,-100,-305,-321r180,0v-8,111,21,184,125,183v83,0,125,-39,125,-120v0,-35,-12,-67,-35,-95v-23,-28,-70,-66,-139,-115v-91,-64,-152,-116,-183,-157v-31,-41,-46,-89,-46,-145v0,-168,110,-254,284,-254","w":755},"\u0456":{"d":"102,0r0,-982r183,0r0,982r-183,0xm97,-1409r192,0r0,183r-192,0r0,-183","w":378},"\u0457":{"d":"-30,-1341r194,0r0,182r-194,0r0,-182xm289,-1341r194,0r0,182r-194,0r0,-182xm135,0r0,-982r183,0r0,982r-183,0","w":453},"\u0458":{"d":"31,250v82,-4,76,-35,76,-131r0,-1101r183,0r0,1143v-1,157,-47,225,-197,227v-37,0,-71,-4,-100,-13r0,-127xm103,-1409r192,0r0,183r-192,0r0,-183","w":378},"\u0459":{"d":"1105,-309v5,229,-96,310,-328,309r-244,0r0,-846r-232,0r0,581v1,195,-101,304,-308,286r0,-156v94,5,125,-36,125,-130r0,-717r598,0r0,403r72,0v232,4,312,49,317,270xm922,-278v0,-115,-19,-166,-134,-163r-72,0r0,303v126,6,206,-14,206,-140","w":1199},"\u045a":{"d":"1116,-309v5,229,-96,310,-328,309r-244,0r0,-442r-259,0r0,442r-183,0r0,-982r183,0r0,404r259,0r0,-404r183,0r0,403r72,0v232,4,312,49,317,270xm933,-278v0,-115,-19,-166,-134,-163r-72,0r0,303v126,6,206,-14,206,-140","w":1211},"\u045b":{"d":"440,-815v-103,0,-146,57,-146,164r0,651r-183,0r0,-1411r183,0r0,487v61,-53,128,-79,199,-79v162,-1,256,93,255,255r0,748r-183,0r0,-659v0,-94,-37,-156,-125,-156xm-25,-1147r0,-136r510,0r0,136r-510,0","w":840},"\u045c":{"d":"329,-1095r117,-309r216,0r-187,309r-146,0xm122,0r0,-982r183,0r0,379v120,-1,203,-13,203,-113v0,-87,6,-186,44,-224v35,-35,112,-45,192,-42r0,144v-28,0,-51,-3,-61,18v-11,24,-10,90,-11,131v-1,79,-38,129,-104,148v100,29,139,88,153,214r17,152v9,72,19,115,39,174r-181,0v-65,-104,-21,-347,-109,-427v-35,-32,-106,-41,-182,-38r0,466r-183,0"},"\u045e":{"d":"679,-1388v11,202,-63,290,-259,290v-195,0,-256,-87,-258,-290r139,0v1,107,23,170,119,170v98,0,122,-62,120,-170r139,0xm253,-982r169,728r177,-728r174,0r-368,1345r-170,0r103,-343r-271,-1002r186,0"},"\u045f":{"d":"102,0r0,-982r183,0r0,846r271,0r0,-846r183,0r0,982r-228,0r0,205r-183,0r0,-205r-226,0"},"\u0490":{"d":"326,0r-193,0r0,-1411r544,0r0,-282r110,0r0,441r-461,0r0,1252","w":855},"\u0491":{"d":"285,0r-183,0r0,-982r428,0r0,-196r110,0r0,332r-355,0r0,846","w":703},"\u2013":{"d":"57,-566r838,0r0,140r-838,0r0,-140","w":944},"\u2014":{"d":"97,-566r1168,0r0,140r-1168,0r0,-140","w":1360},"\u2018":{"d":"380,-1410r-96,443r-203,0r174,-443r125,0","w":453},"\u2019":{"d":"93,-967r96,-443r203,0r-174,443r-125,0","w":453},"\u201c":{"d":"380,-1410r-96,443r-203,0r174,-443r125,0xm671,-1410r-96,443r-203,0r174,-443r125,0","w":718},"\u201d":{"d":"93,-967r96,-443r203,0r-174,443r-125,0xm384,-967r96,-443r203,0r-174,443r-125,0","w":718},"\u2026":{"d":"149,-182r172,0r0,182r-172,0r0,-182xm593,-182r172,0r0,182r-172,0r0,-182xm1038,-182r172,0r0,182r-172,0r0,-182","w":1360},"\u2122":{"d":"515,-781r0,-607r160,0r112,486r112,-486r160,0r0,607r-89,0r0,-559r-129,559r-108,0r-129,-559r0,559r-89,0xm59,-1388r393,0r0,89r-152,0r0,518r-89,0r0,-518r-152,0r0,-89","w":1246},"\u00a0":{"w":453}}});
/*!
 * The following copyright notice may not be removed under any circumstances.
 * 
 * Copyright:
 * Copyright (c) 1992-95 ElseWare.  All rights reserved.
 * 
 * Trademark:
 * Univers Condensed is a trademark of Haas.
 */
Cufon.registerFont({"w":906,"face":{"font-family":"Univers Condensed","font-weight":700,"font-stretch":"condensed","units-per-em":"2048","panose-1":"2 11 7 6 3 5 2 5 2 4","ascent":"1638","descent":"-410","x-height":"21","bbox":"-45 -1838 1701 512","underline-thickness":"105","underline-position":"-355","unicode-range":"U+0020-U+2122"},"glyphs":{" ":{"w":453},"!":{"d":"213,-391r-29,-1020r257,0r-28,1020r-200,0xm182,-259r260,0r0,259r-260,0r0,-259","w":604},"\"":{"d":"135,-945r-40,-466r259,0r-38,466r-181,0xm518,-945r-40,-466r259,0r-38,466r-181,0","w":831},"#":{"d":"984,-1425r-432,1490r-188,0r432,-1490r188,0xm616,-1425r-432,1490r-188,0r432,-1490r188,0xm170,-1055r837,0r-49,169r-837,0xm22,-544r837,0r-49,169r-837,0","w":982},"$":{"d":"497,-1222v252,0,355,71,342,319r-262,0v3,-83,-3,-156,-80,-156v-94,0,-94,129,-44,173v23,20,67,46,136,76v97,42,166,86,205,132v39,46,59,105,59,176v-1,212,-130,302,-352,302v-259,0,-363,-80,-352,-336r263,0v-3,93,4,175,89,175v107,0,114,-156,57,-210v-23,-23,-72,-48,-145,-81v-159,-72,-257,-123,-257,-314v0,-167,159,-256,341,-256xm613,-361r0,415r-224,0r0,-415r224,0xm389,-1059r0,-389r224,0r0,389r-224,0","w":982},"%":{"d":"312,-667v-196,0,-237,-69,-237,-273r0,-269v1,-165,70,-228,237,-228v167,0,237,63,237,228r0,269v-4,204,-41,273,-237,273xm312,-1316v-66,0,-70,39,-70,116r0,269v5,98,-7,147,70,147v77,0,70,-49,70,-147r0,-269v-3,-83,1,-116,-70,-116xm276,70r664,-1523r146,0r-664,1523r-146,0xm1049,14v-196,0,-237,-69,-237,-273r0,-269v1,-165,70,-228,237,-228v167,0,237,63,237,228r0,269v-4,204,-41,273,-237,273xm1049,-635v-66,0,-70,39,-70,116r0,269v5,98,-7,147,70,147v77,0,70,-49,70,-147r0,-269v-3,-83,1,-116,-70,-116","w":1360},"&":{"d":"332,-781v-66,-87,-145,-201,-148,-306v-5,-210,147,-338,362,-338v198,0,363,107,361,292v-2,172,-132,285,-265,365r263,337v27,-97,27,-186,27,-351r212,0v14,228,-11,402,-94,536r192,246r-284,0r-70,-86v-87,61,-215,107,-351,107v-257,0,-456,-156,-451,-404v4,-223,90,-289,246,-398xm332,-401v-1,143,100,241,244,241v86,0,149,-31,197,-70r-318,-394v-73,49,-122,113,-123,223xm546,-1245v-117,0,-146,140,-82,234v16,24,36,56,63,94v65,-41,134,-109,134,-193v0,-76,-43,-135,-115,-135","w":1284},"'":{"d":"135,-945r-40,-466r259,0r-38,466r-181,0","w":453},"(":{"d":"250,194v-87,-204,-157,-539,-157,-817v1,-264,72,-583,157,-780r179,0v-169,406,-163,1191,0,1597r-179,0","w":453},")":{"d":"225,-1403v87,205,158,538,158,817v-1,263,-74,583,-158,780r-179,0v77,-184,127,-512,127,-780v0,-282,-48,-627,-127,-817r179,0","w":453},"*":{"d":"720,-1350r-132,180r220,-26r0,164r-220,-27r134,175r-141,84r-90,-205r-86,206r-143,-81r132,-180r-220,26r0,-164r220,27r-134,-175r141,-84r90,205r86,-206","w":982},"+":{"d":"603,-447r-390,0r0,-150r390,0r0,-390r150,0r0,390r390,0r0,150r-390,0r0,390r-150,0r0,-390","w":1360},",":{"d":"71,189r56,-458r255,0r-133,458r-178,0","w":453},"-":{"d":"81,-598r296,0r0,191r-296,0r0,-191","w":453},".":{"d":"103,-259r260,0r0,259r-260,0r0,-259","w":453},"\/":{"d":"415,-1411r-173,1594r-183,0r173,-1594r183,0","w":453},"0":{"d":"491,21v-277,0,-384,-118,-384,-397r0,-650v2,-280,107,-399,384,-399v277,0,384,118,384,398r0,650v-2,280,-107,398,-384,398xm493,-1234v-115,0,-118,78,-118,218r0,563v0,120,10,196,21,231v20,66,176,65,196,2v11,-33,20,-110,20,-233r0,-563v-5,-144,0,-218,-119,-218","w":982},"1":{"d":"223,-1179v112,-68,156,-112,224,-225r239,0r0,1404r-266,0r0,-1101v-54,63,-105,102,-197,148r0,-226","w":982},"2":{"d":"505,-1417v253,2,366,89,366,337v0,133,-41,265,-122,398v-71,117,-202,279,-393,488r522,0r0,194r-753,0r0,-238v170,-205,293,-375,368,-509v75,-133,113,-248,113,-344v0,-87,-24,-137,-104,-137v-90,0,-114,72,-103,176r0,42r-259,0r0,-42v-27,-256,107,-366,365,-365","w":982},"3":{"d":"435,-832v155,7,170,-90,166,-246v-3,-104,-14,-155,-106,-158v-91,-3,-111,67,-105,165r-259,0v-14,-262,98,-354,364,-354v259,0,372,91,366,348v-5,192,-32,288,-157,333v112,41,154,127,157,285r0,119v-2,260,-110,359,-373,361v-285,2,-382,-111,-372,-398r259,0v-3,107,3,209,97,209v112,0,127,-66,129,-193r0,-119v1,-98,-44,-163,-136,-164r-111,0r0,-188r81,0","w":982},"4":{"d":"65,-303r0,-279r354,-829r378,0r0,914r150,0r0,194r-150,0r0,303r-266,0r0,-303r-466,0xm531,-497r0,-666r-285,666r285,0","w":982},"5":{"d":"616,-934v223,6,262,129,266,378r0,143v-2,295,-97,431,-380,434v-280,2,-390,-94,-379,-372r264,0v-6,106,14,185,113,183v49,0,82,-17,98,-50v33,-68,37,-404,4,-482v-12,-30,-43,-43,-86,-43v-96,0,-111,79,-116,191r-268,0r13,-859r700,0r0,199r-457,0r0,366v53,-54,133,-91,228,-88","w":982},"6":{"d":"116,-1002v4,-309,97,-420,401,-423v252,-2,358,108,348,363r-263,0v6,-98,-10,-175,-99,-173v-112,2,-123,52,-122,177r1,200v65,-49,140,-73,225,-73v213,0,263,139,265,377r0,142v-2,295,-96,433,-378,433v-309,0,-378,-120,-378,-444r0,-579xm495,-742v-160,-6,-114,217,-114,367v0,126,10,203,114,203v108,0,114,-73,114,-203r0,-199v-3,-114,-13,-164,-114,-168","w":982},"7":{"d":"219,0r388,-1212r-499,0r0,-199r744,0r0,216r-350,1195r-283,0","w":982},"8":{"d":"493,21v-266,0,-379,-97,-381,-358r0,-84v5,-197,55,-281,217,-311v-134,-36,-214,-119,-213,-282r0,-78v3,-248,120,-331,377,-333v283,-2,387,116,378,404v-5,163,-63,253,-193,288v164,37,202,180,197,396v-7,261,-117,358,-382,358xm379,-1058v0,142,-12,234,114,232v123,-2,115,-80,115,-225v0,-132,-1,-187,-115,-187v-107,0,-114,57,-114,180xm612,-458v-6,-139,6,-176,-119,-176v-110,0,-114,53,-118,176r0,84v8,153,-12,202,118,202v131,0,111,-49,119,-202r0,-84","w":982},"9":{"d":"869,-345v-2,263,-130,365,-400,366v-287,1,-352,-103,-348,-393r263,0v-1,119,-12,206,99,203v111,-3,121,-53,121,-177r0,-252v-65,46,-140,69,-225,69v-208,0,-263,-127,-265,-355r0,-134v2,-283,102,-407,378,-407v279,0,377,95,377,374r0,706xm494,-718v147,4,110,-196,110,-336v0,-106,-19,-175,-110,-178v-153,-4,-110,218,-110,366v0,97,21,146,110,148","w":982},":":{"d":"103,-259r260,0r0,259r-260,0r0,-259xm103,-957r260,0r0,259r-260,0r0,-259","w":453},";":{"d":"71,189r56,-458r255,0r-133,458r-178,0xm122,-957r260,0r0,259r-260,0r0,-259","w":453},"<":{"d":"410,-553r0,-150r1225,-546r0,192r-966,429r966,436r0,192","w":2039},"=":{"d":"215,-436r926,0r0,150r-926,0r0,-150xm215,-759r926,0r0,150r-926,0r0,-150","w":1360},">":{"d":"1635,-553r-1225,553r0,-192r966,-436r-966,-429r0,-192r1225,546r0,150","w":2039},"?":{"d":"528,-1125v0,-85,-10,-129,-87,-129v-80,0,-85,90,-82,182r-259,0v-16,-247,98,-360,341,-360v220,0,340,94,341,307v0,67,-14,125,-30,179v-18,59,-171,283,-201,385v-9,32,-12,91,-12,176r-210,0v4,-271,-5,-252,88,-427v50,-95,83,-156,94,-188v11,-32,17,-74,17,-125xm304,-259r260,0r0,259r-260,0r0,-259"},"@":{"d":"981,-378v1,45,5,74,43,74v52,0,56,-49,56,-115r0,-441v-3,-287,-111,-393,-400,-393v-314,0,-401,160,-401,495r0,337v4,333,80,490,390,496v98,2,241,-20,306,-49r0,194v-66,24,-230,35,-337,34v-443,-6,-571,-210,-574,-675r0,-337v6,-474,154,-674,616,-674v437,0,615,145,615,572r0,441v-2,204,-70,285,-270,285v-105,0,-176,-42,-214,-125v-32,77,-103,127,-198,125v-174,-3,-235,-124,-235,-314r0,-297v0,-162,54,-264,203,-264v76,0,134,26,173,77r0,-56r227,0r0,610xm754,-665v-3,-103,0,-173,-79,-173v-69,0,-79,49,-79,129r0,236v5,106,-6,159,78,159v78,0,80,-72,80,-173r0,-178","w":1360},"A":{"d":"402,-1411r339,0r319,1411r-279,0r-55,-305r-308,0r-57,305r-279,0xm574,-1147r-117,632r231,0","w":1133},"B":{"d":"997,-373v0,316,-120,373,-461,373r-403,0r0,-1411r427,0v304,6,419,57,419,338v0,239,-65,325,-274,352v213,28,292,108,292,348xm693,-1009v-3,-151,-44,-187,-197,-190r-74,0r0,374r58,0v174,-4,209,-38,213,-212r0,28xm708,-409v0,-174,-33,-200,-209,-204r-77,0r0,401r91,0v157,-4,195,-42,195,-197","w":1095},"C":{"d":"559,-191v123,0,133,-142,130,-289r287,0v10,342,-84,505,-417,501v-344,-4,-442,-149,-442,-508r0,-435v4,-361,97,-506,442,-510v297,-4,426,160,408,473r-287,0v4,-134,-7,-261,-121,-261v-132,0,-153,108,-153,266v0,215,-24,546,34,691v20,49,62,72,119,72","w":1057},"D":{"d":"1025,-549v-6,415,-87,541,-488,549r-396,0r0,-1411r380,0v357,3,504,118,504,467r0,395xm736,-948v-3,-192,-54,-248,-245,-251r-61,0r0,987r76,0v196,-4,230,-65,230,-270r0,-466","w":1133},"E":{"d":"138,0r0,-1411r705,0r0,210r-416,0r0,373r402,0r0,210r-402,0r0,408r424,0r0,210r-713,0","w":944},"F":{"d":"136,0r0,-1411r676,0r0,210r-387,0r0,384r366,0r0,210r-366,0r0,607r-289,0"},"G":{"d":"721,-974v6,-140,-20,-246,-146,-246v-59,0,-101,24,-124,70v-53,110,-35,401,-35,581v0,154,10,257,34,305v44,89,146,85,269,51r0,-325r-133,0r0,-210r422,0r0,713v-153,37,-301,56,-445,56v-363,0,-428,-180,-436,-574r0,-334v4,-367,115,-542,465,-545v298,-3,435,150,416,458r-287,0","w":1133},"H":{"d":"142,0r0,-1411r289,0r0,583r275,0r0,-583r289,0r0,1411r-289,0r0,-618r-275,0r0,618r-289,0","w":1133},"I":{"d":"125,0r0,-1411r289,0r0,1411r-289,0","w":529},"J":{"d":"457,-193v79,0,107,-59,107,-145r0,-1073r283,0r0,1073v-1,252,-133,359,-391,359v-315,1,-401,-153,-391,-480r288,0v3,138,-13,266,104,266","w":982},"K":{"d":"434,0r-289,0r0,-1411r289,0r0,649r310,-649r307,0r-307,621r312,790r-314,0r-308,-762r0,762","w":1095},"L":{"d":"143,0r0,-1411r289,0r0,1201r367,0r0,210r-656,0","w":868},"M":{"d":"528,-1411r225,1080r224,-1080r403,0r0,1411r-237,0r0,-1185r-247,1185r-288,0r-248,-1190r0,1190r-237,0r0,-1411r405,0","w":1511},"N":{"d":"379,0r-237,0r0,-1411r425,0r244,1191r0,-1191r237,0r0,1411r-423,0r-246,-1201r0,1201","w":1171},"O":{"d":"568,21v-335,0,-439,-135,-439,-479r0,-581v1,-273,157,-393,439,-393v282,0,440,120,440,393r0,581v-4,345,-104,479,-440,479xm568,-191v138,0,151,-93,151,-255r0,-581v1,-116,-43,-193,-151,-193v-107,0,-151,77,-150,193r0,581v4,162,13,255,150,255","w":1133},"P":{"d":"982,-994v0,361,-110,424,-483,432r-82,0r0,562r-289,0r0,-1411r428,0v307,3,426,112,426,417xm693,-990v0,-160,-37,-206,-194,-209r-82,0r0,425r82,0v165,-4,194,-46,194,-216","w":1057},"Q":{"d":"577,-1432v322,0,440,149,440,480r0,406v1,159,-43,282,-132,368r215,-14r0,192r-235,0r-288,21v-388,-10,-427,-133,-439,-545r0,-392v6,-362,94,-516,439,-516xm577,-1220v-55,0,-95,24,-115,68v-59,126,-35,437,-35,633v0,123,13,207,33,256v38,96,199,95,235,-3v51,-137,33,-467,33,-673v0,-105,-11,-178,-33,-219v-22,-41,-61,-62,-118,-62","w":1171},"R":{"d":"682,-383v0,-142,-45,-191,-186,-193r-84,0r0,576r-289,0r0,-1411r424,0v291,3,421,86,421,366v0,235,-58,325,-249,363v180,-6,255,114,248,299v-5,122,-7,290,16,382r-288,0v-21,-92,-13,-257,-13,-382xm679,-999v0,-154,-37,-197,-187,-200r-80,0r0,407r80,0v158,-3,187,-44,187,-207","w":1057},"S":{"d":"564,-1432v320,0,423,135,409,458r-285,0v2,-142,-2,-247,-133,-246v-103,1,-153,62,-148,170v6,125,83,155,196,211v142,70,244,134,301,199v57,65,86,144,86,238v0,287,-152,423,-443,423v-334,0,-453,-127,-443,-458r285,0v-8,144,26,247,158,246v112,-1,157,-68,157,-185v0,-46,-16,-86,-48,-119v-31,-33,-86,-69,-165,-106v-137,-65,-233,-128,-288,-191v-55,-62,-82,-139,-82,-231v1,-281,155,-409,443,-409","w":1095},"T":{"d":"367,0r0,-1201r-304,0r0,-210r896,0r0,210r-303,0r0,1201r-289,0","w":1020},"U":{"d":"566,-189v122,0,148,-57,148,-188r0,-1034r286,0r0,1015v0,282,-148,417,-434,417v-286,0,-434,-135,-434,-417r0,-1015r286,0r0,1034v2,131,26,188,148,188","w":1133},"V":{"d":"343,-1411r197,1094r188,-1094r276,0r-304,1411r-339,0r-305,-1411r287,0","w":1057},"W":{"d":"292,0r-239,-1411r256,0r156,1072r179,-1072r294,0r198,1089r153,-1089r243,0r-235,1411r-328,0r-185,-1003r-164,1003r-328,0","w":1586},"X":{"d":"778,0r-211,-495r-219,495r-279,0r327,-733r-297,-678r296,0r186,466r187,-466r276,0r-305,692r319,719r-280,0","w":1133},"Y":{"d":"383,-527r-330,-884r309,0r166,562r183,-562r289,0r-328,873r0,538r-289,0r0,-527","w":1057},"Z":{"d":"68,-271r528,-930r-506,0r0,-210r786,0r0,271r-528,930r523,0r0,210r-803,0r0,-271","w":944},"[":{"d":"93,194r0,-1597r300,0r0,135r-100,0r0,1321r100,0r0,141r-300,0","w":453},"\\":{"d":"231,183r-171,-1594r184,0r171,1594r-184,0","w":453},"]":{"d":"368,194r-301,0r0,-141r101,0r0,-1321r-101,0r0,-135r301,0r0,1597","w":453},"^":{"d":"99,-1087v187,-140,260,-228,359,-449r106,0v99,222,173,310,360,449r0,94v-182,-84,-303,-156,-414,-260v-110,105,-230,175,-411,260r0,-94","w":1020},"_":{"d":"0,512r0,-105r1020,0r0,105r-1020,0","w":1020},"`":{"d":"456,-1103r-185,-317r296,0r108,317r-219,0","w":982},"a":{"d":"548,-81v-49,65,-125,102,-231,102v-173,-1,-239,-127,-239,-320v0,-281,166,-325,462,-318v-2,-101,21,-231,-82,-231v-83,0,-103,60,-96,149r-259,0v-9,-230,112,-304,348,-304v226,0,348,85,348,301r0,702r-251,0r0,-81xm428,-132v132,-3,111,-188,112,-332v-142,-5,-202,33,-202,174v0,87,9,160,90,158"},"b":{"d":"816,-347v-4,238,-35,368,-245,368v-98,0,-173,-32,-225,-96r0,75r-251,0r0,-1411r259,0r0,513v49,-68,125,-106,227,-105v173,3,235,121,235,308r0,348xm562,-634v0,-120,-6,-193,-104,-193v-37,0,-64,17,-80,52v-37,80,-24,272,-24,398v0,90,10,149,22,179v22,58,145,56,166,-2v28,-77,20,-307,20,-434"},"c":{"d":"420,-152v98,1,81,-111,82,-216r257,0v17,259,-90,392,-339,389v-250,-2,-339,-117,-339,-374r0,-276v2,-257,89,-372,339,-374v250,-2,348,117,339,375r-257,0v2,-100,4,-202,-79,-202v-85,0,-85,71,-85,181v0,135,-12,363,16,454v9,29,33,43,66,43","w":831},"d":{"d":"575,-107v-46,80,-125,130,-229,128v-200,-5,-250,-127,-250,-348r0,-348v0,-200,66,-325,250,-328v73,-1,143,30,212,93r0,-501r259,0r0,1411r-242,0r0,-107xm356,-347v3,114,8,192,100,192v41,0,70,-18,82,-53v31,-91,30,-473,0,-566v-11,-36,-40,-53,-81,-53v-101,0,-101,70,-101,193r0,287"},"e":{"d":"802,-334v12,253,-129,357,-384,355v-253,-2,-339,-122,-340,-384r0,-194v4,-308,73,-446,362,-446v299,0,356,103,362,415r0,143r-467,0v-1,106,7,223,21,256v15,36,41,55,84,55v105,0,108,-85,105,-200r257,0xm545,-650v-4,-127,-1,-198,-105,-198v-41,0,-68,17,-83,50v-15,32,-23,113,-22,203r210,0r0,-55","w":868},"f":{"d":"592,-1247v-93,-6,-147,11,-147,106r0,159r147,0r0,174r-147,0r0,808r-259,0r0,-808r-137,0r0,-174r137,0r0,-159v0,-189,83,-282,269,-283v49,0,94,3,137,8r0,169","w":642},"g":{"d":"361,88v-5,84,8,152,85,152v143,2,86,-214,98,-351v-47,69,-121,114,-214,111v-203,-6,-236,-126,-236,-356r0,-270v1,-219,54,-371,245,-377v88,-3,166,44,221,118r0,-97r255,0r0,1056v-1,219,-132,316,-361,315v-242,0,-361,-67,-353,-301r260,0xm449,-176v106,0,95,-77,95,-215v0,-118,11,-323,-18,-394v-12,-28,-38,-42,-77,-42v-79,0,-94,75,-94,171v0,132,-13,352,19,439v10,28,37,41,75,41"},"h":{"d":"487,-828v-103,0,-112,98,-112,227r0,601r-259,0r0,-1411r259,0r0,514v57,-71,137,-106,239,-106v138,-1,223,116,223,261r0,742r-259,0r0,-714v-1,-75,-21,-114,-91,-114","w":944},"i":{"d":"119,0r0,-982r259,0r0,982r-259,0xm118,-1399r260,0r0,234r-260,0r0,-234","w":491},"j":{"d":"-9,213v106,-2,126,-30,126,-139r0,-1056r259,0r0,1104v6,207,-173,301,-385,256r0,-165xm117,-1399r260,0r0,234r-260,0r0,-234","w":491},"k":{"d":"377,-1411r0,1411r-259,0r0,-1411r259,0xm586,0r-209,-535r197,-447r278,0r-209,430r209,552r-266,0"},"l":{"d":"120,0r0,-1411r259,0r0,1411r-259,0","w":491},"m":{"d":"464,-828v-112,0,-115,89,-114,227r0,601r-259,0r0,-982r243,0r0,95v51,-76,126,-117,226,-116v119,0,197,45,232,131v44,-82,129,-133,238,-131v176,1,251,108,250,293r0,710r-259,0r0,-690v0,-77,-25,-138,-92,-138v-85,0,-113,70,-113,167r0,661r-259,0r0,-688v0,-78,-24,-140,-93,-140","w":1360},"n":{"d":"486,-828v-110,0,-112,90,-112,227r0,601r-259,0r0,-982r259,0r0,92v56,-75,136,-113,241,-113v156,1,221,95,221,259r0,744r-259,0r0,-714v-1,-75,-21,-114,-91,-114","w":944},"o":{"d":"455,21v-260,0,-360,-111,-360,-374r0,-276v2,-263,100,-374,360,-374v260,0,361,111,361,374r0,276v-2,263,-101,374,-361,374xm455,-848v-97,0,-103,79,-103,198v0,139,-10,380,20,469v21,62,144,62,166,0v30,-87,21,-332,21,-469v0,-120,-7,-198,-104,-198"},"p":{"d":"816,-347v-4,237,-33,362,-241,368v-96,3,-170,-31,-221,-95r0,462r-259,0r0,-1370r259,0r0,84v49,-68,125,-106,227,-105v173,3,235,121,235,308r0,348xm562,-634v0,-120,-6,-193,-104,-193v-37,0,-64,17,-80,52v-37,80,-24,272,-24,398v0,90,11,149,22,179v22,59,145,56,166,-2v28,-77,20,-307,20,-434"},"q":{"d":"565,-100v-50,78,-131,124,-239,121v-189,-5,-231,-133,-231,-348r0,-348v0,-200,66,-325,250,-328v77,-1,150,33,220,100r0,-79r251,0r0,1370r-251,0r0,-488xm355,-347v3,114,8,192,100,192v41,0,70,-18,82,-53v31,-91,31,-473,1,-566v-11,-36,-41,-53,-82,-53v-95,0,-101,77,-101,193r0,287"},"r":{"d":"574,-786v-161,3,-196,74,-196,245r0,541r-259,0r0,-982r247,0r0,127v44,-94,126,-138,264,-147r0,220v-17,-3,-35,-5,-56,-4","w":680},"s":{"d":"414,-1003v238,0,351,82,343,316r-261,0v4,-87,-4,-157,-82,-161v-95,-6,-110,121,-57,174v20,21,55,42,104,63v125,54,208,103,249,146v41,43,61,104,61,182v-1,214,-129,304,-353,304v-255,0,-363,-92,-354,-345r258,0v-2,109,-5,190,96,190v111,0,128,-144,69,-207v-21,-23,-59,-47,-112,-70v-122,-53,-203,-100,-244,-141v-40,-41,-60,-97,-60,-168v2,-202,128,-283,343,-283","w":831},"t":{"d":"440,-270v3,86,2,115,80,115v29,0,56,-3,81,-6r0,170v-51,8,-108,12,-173,12v-173,-1,-248,-109,-247,-291r0,-538r-138,0r0,-174r138,0r0,-157r259,-107r0,264r161,0r0,174r-161,0r0,538","w":642},"u":{"d":"355,21v-171,0,-243,-104,-243,-284r0,-719r259,0r0,688v1,87,17,140,93,140v111,0,114,-90,113,-227r0,-601r259,0r0,982r-243,0r0,-97v-69,78,-148,118,-238,118","w":944},"v":{"d":"324,-982r137,729r137,-729r259,0r-230,982r-336,0r-230,-982r263,0"},"w":{"d":"229,0r-197,-982r261,0r116,777r141,-777r336,0r151,770r107,-770r257,0r-193,982r-336,0r-145,-763r-162,763r-336,0","w":1435},"x":{"d":"608,0r-148,-317r-156,317r-252,0r253,-507r-229,-475r259,0r128,294r140,-294r250,0r-251,468r251,514r-245,0"},"y":{"d":"313,-982r146,605r151,-605r250,0r-351,1347r-247,0r86,-357r-294,-990r259,0"},"z":{"d":"70,-227r368,-583r-339,0r0,-172r587,0r0,204r-364,606r370,0r0,172r-622,0r0,-227","w":755},"{":{"d":"653,97v4,163,67,191,243,186r0,190v-341,12,-485,-59,-491,-376r0,-264v-2,-179,-82,-256,-244,-282r0,-190v152,-23,243,-114,244,-282r0,-264v8,-336,130,-385,491,-376r0,190v-189,-4,-243,10,-243,186r0,264v2,190,-83,315,-221,378v136,64,221,190,221,376r0,264","w":1020},"|":{"d":"458,512r0,-2048r105,0r0,2048r-105,0","w":1020},"}":{"d":"858,-449v-161,26,-243,103,-243,282r0,264v-6,317,-151,389,-491,376r0,-190v176,5,243,-23,243,-186r0,-264v-2,-185,86,-313,221,-376v-139,-64,-221,-187,-221,-378r0,-264v-5,-175,-54,-190,-243,-186r0,-190v362,-9,483,40,491,376r0,264v0,168,92,259,243,282r0,190","w":1020},"~":{"d":"710,-545v-99,-4,-221,60,-264,121r-32,-66v54,-109,190,-240,327,-243v241,-6,399,132,645,135v102,1,223,-59,261,-124r37,56v-36,126,-177,256,-327,256v-201,0,-431,-127,-647,-135","w":2039},"\u00d7":{"d":"683,-416r-318,318r-106,-106r318,-318r-318,-318r106,-106r318,318r318,-318r106,106r-318,318r318,318r-106,106","w":1360},"\u0415":{"d":"138,0r0,-1411r705,0r0,210r-416,0r0,373r402,0r0,210r-402,0r0,408r424,0r0,210r-713,0","w":944},"\u0401":{"d":"184,-1753r228,0r0,227r-228,0r0,-227xm571,-1753r228,0r0,227r-228,0r0,-227xm138,0r0,-1411r705,0r0,210r-416,0r0,373r402,0r0,210r-402,0r0,408r424,0r0,210r-713,0","w":944},"\u0402":{"d":"817,21v-19,0,-34,-1,-47,-7r0,-208v55,12,95,-9,114,-68v22,-70,30,-371,-6,-448v-44,-93,-184,-62,-222,6r0,704r-289,0r0,-1201r-304,0r0,-210r896,0r0,210r-303,0r0,316v151,-93,360,-92,456,47v52,76,83,188,84,339v3,313,-96,513,-379,520","w":1303},"\u0413":{"d":"431,0r-289,0r0,-1411r726,0r0,210r-437,0r0,1201","w":963},"\u0403":{"d":"375,-1521r120,-317r284,0r-189,317r-215,0xm431,0r-289,0r0,-1411r726,0r0,210r-437,0r0,1201","w":963},"\u0404":{"d":"559,-191v123,0,133,-142,130,-289r287,0v10,342,-84,505,-417,501v-344,-4,-442,-149,-442,-508r0,-435v4,-361,97,-506,442,-510v297,-4,426,160,408,473r-287,0v4,-134,-7,-259,-121,-261v-171,-3,-152,207,-153,392r285,0r0,210r-285,0v7,205,-27,427,153,427","w":1057},"\u0405":{"d":"564,-1432v320,0,423,135,409,458r-285,0v2,-142,-2,-247,-133,-246v-103,1,-153,62,-148,170v6,125,83,155,196,211v142,70,244,134,301,199v57,65,86,144,86,238v0,287,-152,423,-443,423v-334,0,-453,-127,-443,-458r285,0v-8,144,26,247,158,246v112,-1,157,-68,157,-185v0,-46,-16,-86,-48,-119v-31,-33,-86,-69,-165,-106v-137,-65,-233,-128,-288,-191v-55,-62,-82,-139,-82,-231v1,-281,155,-409,443,-409","w":1095},"\u0406":{"d":"125,0r0,-1411r289,0r0,1411r-289,0","w":529},"\u0407":{"d":"-45,-1753r228,0r0,227r-228,0r0,-227xm342,-1753r228,0r0,227r-228,0r0,-227xm118,0r0,-1411r289,0r0,1411r-289,0","w":529},"\u0408":{"d":"457,-193v79,0,107,-59,107,-145r0,-1073r283,0r0,1073v-1,252,-133,359,-391,359v-315,1,-401,-153,-391,-480r288,0v3,138,-13,266,104,266","w":982},"\u0409":{"d":"1539,-462v0,379,-104,454,-488,462r-376,0r0,-1201r-201,0r0,842v2,283,-120,391,-409,380r0,-243v95,7,121,-40,120,-137r0,-1052r779,0r0,539r102,0v354,7,473,70,473,410xm1265,-449v0,-160,-35,-208,-191,-211r-110,0r0,448r95,0v177,-4,206,-53,206,-237","w":1638},"\u040a":{"d":"1574,-447v0,370,-108,439,-488,447r-376,0r0,-618r-279,0r0,618r-289,0r0,-1411r289,0r0,583r279,0r0,-583r289,0r0,566r102,0v350,7,473,64,473,398xm1300,-435v0,-154,-38,-195,-191,-198r-110,0r0,421r95,0v174,-4,206,-45,206,-223","w":1672},"\u040b":{"d":"907,-617v-1,-102,-28,-154,-123,-154v-54,0,-106,31,-128,67r0,704r-289,0r0,-1201r-304,0r0,-210r896,0r0,210r-303,0r0,316v70,-39,151,-66,219,-65v218,2,321,116,321,338r0,612r-289,0r0,-617","w":1303},"\u041a":{"d":"145,0r0,-1411r289,0r0,537v184,0,249,-69,249,-255v0,-218,118,-294,353,-282r0,242v-89,-12,-102,50,-102,137v0,143,-55,224,-165,256v152,38,207,124,224,310r22,240v9,96,18,153,41,225r-280,0v-41,-118,-47,-279,-60,-425v-16,-175,-91,-239,-282,-230r0,656r-289,0","w":1095},"\u040c":{"d":"465,-1521r120,-317r284,0r-189,317r-215,0xm145,0r0,-1411r289,0r0,537v184,0,249,-69,249,-255v0,-218,118,-294,353,-282r0,242v-89,-12,-102,50,-102,137v0,143,-55,224,-165,256v152,38,207,124,224,310r22,240v9,96,18,153,41,225r-280,0v-41,-118,-47,-279,-60,-425v-16,-175,-91,-239,-282,-230r0,656r-289,0","w":1095},"\u0423":{"d":"351,-1411r177,584r201,-584r271,0r-489,1411r-271,0r152,-438r-339,-973r298,0","w":1057},"\u040e":{"d":"813,-1803v0,185,-101,282,-287,282v-185,0,-286,-98,-286,-282r190,0v2,95,13,147,96,147v83,0,95,-52,97,-147r190,0xm351,-1411r177,584r201,-584r271,0r-489,1411r-271,0r152,-438r-339,-973r298,0","w":1057},"\u040f":{"d":"142,0r0,-1411r289,0r0,1201r275,0r0,-1201r289,0r0,1411r-283,0r0,295r-289,0r0,-295r-281,0","w":1133},"\u0410":{"d":"402,-1411r339,0r319,1411r-279,0r-55,-305r-308,0r-57,305r-279,0xm574,-1147r-117,632r231,0","w":1133},"\u0411":{"d":"997,-462v0,379,-104,454,-488,462r-376,0r0,-1411r778,0r0,210r-489,0r0,329r102,0v354,7,473,70,473,410xm723,-449v0,-160,-35,-208,-191,-211r-110,0r0,448r95,0v177,-4,206,-53,206,-237","w":1095},"\u0412":{"d":"997,-373v0,316,-120,373,-461,373r-403,0r0,-1411r427,0v304,6,419,57,419,338v0,239,-65,325,-274,352v213,28,292,108,292,348xm693,-1009v-3,-151,-44,-187,-197,-190r-74,0r0,374r58,0v174,-4,209,-38,213,-212r0,28xm708,-409v0,-174,-33,-200,-209,-204r-77,0r0,401r91,0v157,-4,195,-42,195,-197","w":1095},"\u0414":{"d":"197,-210v65,-352,84,-726,86,-1201r798,0r0,1201r142,0r0,505r-289,0r0,-295r-580,0r0,295r-289,0r0,-505r132,0xm554,-1201v-6,382,-30,693,-83,991r321,0r0,-991r-238,0","w":1245},"\u0416":{"d":"992,0r-289,0r0,-656v-94,-3,-177,8,-219,53v-111,118,-62,434,-135,602r-280,0v46,-127,50,-308,71,-465v25,-181,75,-273,224,-309v-126,-32,-173,-133,-173,-297v0,-70,-28,-105,-102,-97r0,-242v120,-4,224,14,279,67v54,53,79,153,79,272v0,153,89,195,256,198r0,-537r289,0r0,537v189,0,257,-66,257,-255v0,-220,120,-294,357,-282r0,242v-89,-11,-104,49,-104,137v0,144,-58,226,-171,257v149,40,203,126,223,309r26,240v11,96,20,153,45,225r-280,0v-43,-117,-50,-280,-66,-425v-20,-174,-93,-239,-287,-230r0,656","w":1645},"\u0417":{"d":"547,21v-345,2,-454,-149,-443,-501r287,0v-5,157,16,286,153,289v148,2,159,-93,157,-251v-2,-138,-26,-183,-157,-186r-130,0r0,-210r143,0v141,4,144,-74,144,-220v0,-115,-33,-162,-144,-162v-124,0,-145,119,-139,261r-287,0v-18,-317,121,-474,429,-473v280,1,438,89,430,362v-6,197,-38,295,-171,338v136,42,174,160,171,357v-4,299,-134,394,-443,396","w":1095},"\u0418":{"d":"524,0r-382,0r0,-1411r237,0r0,855v0,67,-1,141,-3,223v-2,82,-4,134,-7,156v9,-75,50,-291,67,-373r177,-861r382,0r0,1411r-237,0r0,-855v0,-68,1,-143,3,-225v2,-82,4,-133,7,-154v-9,75,-50,291,-67,373","w":1133},"\u0419":{"d":"855,-1803v0,185,-101,282,-287,282v-185,0,-286,-98,-286,-282r190,0v2,95,13,147,96,147v83,0,95,-52,97,-147r190,0xm524,0r-382,0r0,-1411r237,0r0,855v0,67,-1,141,-3,223v-2,82,-4,134,-7,156v9,-75,50,-291,67,-373r177,-861r382,0r0,1411r-237,0r0,-855v0,-68,1,-143,3,-225v2,-82,4,-133,7,-154v-9,75,-50,291,-67,373","w":1133},"\u041b":{"d":"65,-222v95,7,121,-40,120,-137r0,-1052r810,0r0,1411r-289,0r0,-1201r-232,0r0,842v2,283,-120,391,-409,380r0,-243","w":1134},"\u041c":{"d":"528,-1411r225,1080r224,-1080r403,0r0,1411r-237,0r0,-1185r-247,1185r-288,0r-248,-1190r0,1190r-237,0r0,-1411r405,0","w":1511},"\u041d":{"d":"142,0r0,-1411r289,0r0,583r275,0r0,-583r289,0r0,1411r-289,0r0,-618r-275,0r0,618r-289,0","w":1133},"\u041e":{"d":"568,21v-335,0,-439,-135,-439,-479r0,-581v1,-273,157,-393,439,-393v282,0,440,120,440,393r0,581v-4,345,-104,479,-440,479xm568,-191v138,0,151,-93,151,-255r0,-581v1,-116,-43,-193,-151,-193v-107,0,-151,77,-150,193r0,581v4,162,13,255,150,255","w":1133},"\u041f":{"d":"431,0r-289,0r0,-1411r853,0r0,1411r-289,0r0,-1201r-275,0r0,1201","w":1133},"\u0420":{"d":"982,-994v0,361,-110,424,-483,432r-82,0r0,562r-289,0r0,-1411r428,0v307,3,426,112,426,417xm693,-990v0,-160,-37,-206,-194,-209r-82,0r0,425r82,0v165,-4,194,-46,194,-216","w":1057},"\u0421":{"d":"559,-191v123,0,133,-142,130,-289r287,0v10,342,-84,505,-417,501v-344,-4,-442,-149,-442,-508r0,-435v4,-361,97,-506,442,-510v297,-4,426,160,408,473r-287,0v4,-134,-7,-261,-121,-261v-132,0,-153,108,-153,266v0,215,-24,546,34,691v20,49,62,72,119,72","w":1057},"\u0422":{"d":"367,0r0,-1201r-304,0r0,-210r896,0r0,210r-303,0r0,1201r-289,0","w":1020},"\u0424":{"d":"129,-851v1,-277,175,-403,454,-416r0,-144r289,0r0,142v280,19,451,138,453,418r0,225v-1,307,-158,463,-453,482r0,144r-289,0r0,-144v-294,-19,-454,-174,-454,-482r0,-225xm872,-359v132,-21,164,-94,164,-255v0,-139,21,-333,-52,-396v-24,-21,-61,-37,-112,-44r0,695xm418,-614v3,163,34,232,165,257r0,-697v-123,17,-165,73,-165,215r0,225","w":1450},"\u0425":{"d":"778,0r-211,-495r-219,495r-279,0r327,-733r-297,-678r296,0r186,466r187,-466r276,0r-305,692r319,719r-280,0","w":1133},"\u0426":{"d":"142,0r0,-1411r289,0r0,1201r275,0r0,-1201r289,0r0,1201r142,0r0,505r-289,0r0,-295r-706,0","w":1133},"\u0427":{"d":"416,-839v0,76,22,115,93,116v40,0,81,-20,97,-45r0,-642r289,0r0,1411r-289,0r-1,-596v-65,34,-127,51,-187,51v-198,0,-291,-105,-291,-306r0,-560r289,0r0,571","w":1019},"\u0428":{"d":"142,0r0,-1411r289,0r0,1201r275,0r0,-1201r289,0r0,1201r275,0r0,-1201r289,0r0,1411r-1417,0","w":1697},"\u0429":{"d":"142,0r0,-1411r289,0r0,1201r275,0r0,-1201r289,0r0,1201r275,0r0,-1201r289,0r0,1201r142,0r0,505r-289,0r0,-295r-1270,0","w":1697},"\u042a":{"d":"1229,-462v0,379,-104,454,-488,462r-376,0r0,-1201r-252,0r0,-210r541,0r0,539r102,0v354,7,473,70,473,410xm955,-449v0,-160,-35,-208,-191,-211r-110,0r0,448r95,0v177,-4,206,-53,206,-237","w":1328},"\u042b":{"d":"1216,0r0,-1411r289,0r0,1411r-289,0xm997,-462v0,379,-104,454,-488,462r-376,0r0,-1411r289,0r0,539r102,0v354,7,473,70,473,410xm723,-449v0,-160,-35,-208,-191,-211r-110,0r0,448r95,0v177,-4,206,-53,206,-237","w":1624},"\u042c":{"d":"997,-462v0,379,-104,454,-488,462r-376,0r0,-1411r289,0r0,539r102,0v354,7,473,70,473,410xm723,-449v0,-160,-35,-208,-191,-211r-110,0r0,448r95,0v177,-4,206,-53,206,-237","w":1095},"\u042d":{"d":"534,21v-332,3,-427,-157,-417,-501r287,0v-3,147,6,289,130,289v57,0,95,-25,120,-72v29,-55,35,-229,33,-355r-285,0r0,-210r285,0r0,-126v-2,-158,-21,-266,-153,-266v-114,0,-125,126,-121,261r-287,0v-18,-312,110,-477,408,-473v345,4,442,150,442,510r0,435v-4,359,-98,504,-442,508","w":1057},"\u042e":{"d":"1061,21v-302,0,-440,-169,-439,-479r0,-160r-208,0r0,618r-289,0r0,-1411r289,0r0,583r208,0r0,-211v1,-273,157,-393,439,-393v282,0,440,120,440,393r0,581v1,311,-138,479,-440,479xm1061,-1220v-124,0,-150,59,-150,193r0,581v4,162,13,255,150,255v138,0,151,-93,151,-255r0,-581v-2,-135,-26,-193,-151,-193","w":1627},"\u042f":{"d":"370,-383v0,-142,45,-191,186,-193r84,0r0,576r289,0r0,-1411r-424,0v-291,3,-421,86,-421,366v0,235,58,325,249,363v-180,-6,-255,114,-248,299v5,122,7,290,-16,382r288,0v21,-92,13,-257,13,-382xm373,-999v0,-154,37,-197,187,-200r80,0r0,407r-80,0v-158,-3,-187,-44,-187,-207","w":1062},"\u0430":{"d":"548,-81v-49,65,-125,102,-231,102v-173,-1,-239,-127,-239,-320v0,-281,166,-325,462,-318v-2,-101,21,-231,-82,-231v-83,0,-103,60,-96,149r-259,0v-9,-230,112,-304,348,-304v226,0,348,85,348,301r0,702r-251,0r0,-81xm428,-132v132,-3,111,-188,112,-332v-142,-5,-202,33,-202,174v0,87,9,160,90,158"},"\u0431":{"d":"781,-353v-2,258,-91,374,-343,374v-133,0,-221,-43,-272,-123v-106,-165,-73,-922,-2,-1070v52,-109,130,-171,251,-179v82,-6,147,-16,156,-81r176,0v-15,175,-126,258,-313,265v-87,3,-133,114,-142,224v40,-41,95,-61,166,-60v242,3,323,121,323,374r0,276xm438,-848v-96,0,-86,71,-86,198v0,138,-9,378,17,469v18,62,120,62,138,0v26,-89,17,-334,17,-469v0,-81,-6,-134,-17,-160v-11,-25,-34,-38,-69,-38","w":871},"\u0432":{"d":"750,-277v0,241,-89,277,-347,277r-323,0r0,-982r342,0v224,5,314,34,314,239v0,167,-53,223,-202,243v148,17,216,67,216,223xm492,-702v0,-113,-43,-130,-153,-125r0,250v109,3,153,-13,153,-125xm506,-288v0,-108,-13,-131,-118,-134r-49,0r0,267r57,0v94,-3,110,-34,110,-133","w":826},"\u0433":{"d":"374,0r-259,0r0,-982r642,0r0,150r-383,0r0,832","w":842},"\u0434":{"d":"153,-150v47,-244,63,-503,64,-832r664,0r0,832r105,0r0,355r-259,0r0,-205r-403,0r0,205r-259,0r0,-355r88,0xm441,-832v-7,259,-24,479,-63,682r244,0r0,-682r-181,0","w":1022},"\u0435":{"d":"802,-334v12,253,-129,357,-384,355v-253,-2,-339,-122,-340,-384r0,-194v4,-308,73,-446,362,-446v299,0,356,103,362,415r0,143r-467,0v-1,106,7,223,21,256v15,36,41,55,84,55v105,0,108,-85,105,-200r257,0xm545,-650v-4,-127,-1,-198,-105,-198v-41,0,-68,17,-83,50v-15,32,-23,113,-22,203r210,0r0,-55","w":868},"\u0436":{"d":"827,0r-259,0r0,-425v-123,-6,-194,18,-203,128r-11,85v-13,91,-22,145,-46,211r-256,0v35,-91,45,-206,61,-324v15,-115,56,-182,148,-208v-66,-30,-92,-97,-92,-194v0,-49,-29,-66,-82,-61r0,-194v206,-11,303,52,303,257v0,94,69,113,178,115r0,-372r259,0r0,372v123,-2,178,-32,178,-156v0,-177,112,-224,304,-216r0,194v-67,-8,-85,26,-85,93v0,81,-34,134,-91,163v197,39,132,363,209,531r-256,0v-31,-80,-45,-188,-57,-296v-12,-108,-78,-134,-202,-128r0,425","w":1378},"\u0437":{"d":"417,21v-264,0,-364,-92,-353,-355r255,0v-3,103,5,198,96,200v101,3,99,-73,99,-178v0,-95,-10,-123,-99,-123r-104,0r0,-150r115,0v96,5,88,-61,88,-157v0,-78,-14,-106,-88,-106v-82,0,-88,87,-85,180r-255,0v-16,-238,105,-337,342,-335v228,1,343,48,343,275v0,118,-53,189,-147,218v91,27,147,94,147,204v0,249,-105,327,-354,327","w":831},"\u0438":{"d":"451,0r-336,0r0,-982r210,0r0,464v0,55,-1,119,-3,190v-2,71,-5,117,-8,138v10,-64,54,-250,71,-321r115,-471r336,0r0,982r-210,0r0,-464v0,-57,2,-121,4,-192v2,-71,4,-116,7,-136v-10,64,-54,250,-71,321","w":944},"\u0439":{"d":"750,-1414v0,206,-78,317,-275,317v-197,0,-275,-111,-275,-317r177,0v3,113,7,185,98,185v91,0,95,-73,98,-185r177,0xm451,0r-336,0r0,-982r210,0r0,464v0,55,-1,119,-3,190v-2,71,-5,117,-8,138v10,-64,54,-250,71,-321r115,-471r336,0r0,982r-210,0r0,-464v0,-57,2,-121,4,-192v2,-71,4,-116,7,-136v-10,64,-54,250,-71,321","w":944},"\u043a":{"d":"118,0r0,-982r259,0r0,372v125,0,179,-32,179,-156v0,-176,111,-224,303,-216r0,194v-67,-8,-84,27,-84,93v0,81,-34,134,-91,163v197,39,132,364,209,531r-256,0v-31,-81,-45,-188,-57,-296v-12,-109,-79,-135,-203,-128r0,425r-259,0","w":947},"\u043b":{"d":"48,-186v91,4,113,-49,113,-144r0,-652r693,0r0,982r-259,0r0,-832r-201,0r0,502v1,254,-92,360,-346,351r0,-207","w":949},"\u043c":{"d":"336,-795v2,19,5,250,5,275r0,520r-237,0r0,-982r400,0r160,691r159,-691r400,0r0,982r-237,0r2,-679v1,-73,2,-113,3,-118v-3,21,-56,246,-62,268r-130,529r-270,0r-167,-678v-17,-71,-25,-110,-26,-117","w":1334},"\u043d":{"d":"115,0r0,-982r259,0r0,397r203,0r0,-397r259,0r0,982r-259,0r0,-435r-203,0r0,435r-259,0","w":944},"\u043e":{"d":"455,21v-260,0,-360,-111,-360,-374r0,-276v2,-263,100,-374,360,-374v260,0,361,111,361,374r0,276v-2,263,-101,374,-361,374xm455,-848v-97,0,-103,79,-103,198v0,139,-10,380,20,469v21,62,144,62,166,0v30,-87,21,-332,21,-469v0,-120,-7,-198,-104,-198"},"\u043f":{"d":"374,0r-259,0r0,-982r721,0r0,982r-259,0r0,-832r-203,0r0,832","w":944},"\u0440":{"d":"816,-347v-4,237,-33,362,-241,368v-96,3,-170,-31,-221,-95r0,462r-259,0r0,-1370r259,0r0,84v49,-68,125,-106,227,-105v173,3,235,121,235,308r0,348xm562,-634v0,-120,-6,-193,-104,-193v-37,0,-64,17,-80,52v-37,80,-24,272,-24,398v0,90,11,149,22,179v22,59,145,56,166,-2v28,-77,20,-307,20,-434"},"\u0441":{"d":"420,-152v98,1,81,-111,82,-216r257,0v17,259,-90,392,-339,389v-250,-2,-339,-117,-339,-374r0,-276v2,-257,89,-372,339,-374v250,-2,348,117,339,375r-257,0v2,-100,4,-202,-79,-202v-85,0,-85,71,-85,181v0,135,-12,363,16,454v9,29,33,43,66,43","w":831},"\u0442":{"d":"291,0r0,-832r-231,0r0,-150r721,0r0,150r-231,0r0,832r-259,0","w":831},"\u0443":{"d":"313,-982r146,605r151,-605r250,0r-351,1347r-247,0r86,-357r-294,-990r259,0"},"\u0444":{"d":"347,-1003v112,-1,195,39,247,111r0,-519r259,0r0,519v52,-71,134,-112,246,-111v181,2,254,116,253,308r0,348v-4,244,-43,363,-263,368v-101,2,-180,-30,-236,-91r0,458r-259,0r0,-460v-55,62,-134,93,-237,93v-233,0,-262,-111,-262,-368r0,-348v-2,-179,84,-307,252,-308xm972,-155v131,0,126,-75,126,-233r0,-246v-3,-126,-14,-193,-125,-193v-171,0,-120,275,-120,450v0,149,-4,222,119,222xm474,-827v-122,0,-125,54,-125,193r0,246v4,144,7,233,125,233v123,0,120,-73,120,-222r0,-228v-6,-151,4,-222,-120,-222","w":1442},"\u0445":{"d":"608,0r-148,-317r-156,317r-252,0r253,-507r-229,-475r259,0r128,294r140,-294r250,0r-251,468r251,514r-245,0"},"\u0446":{"d":"115,0r0,-982r259,0r0,832r203,0r0,-832r259,0r0,832r105,0r0,355r-259,0r0,-205r-567,0","w":944},"\u0447":{"d":"369,-654v0,68,19,102,82,103v35,0,71,-15,85,-36r0,-395r259,0r0,982r-259,0r0,-416v-56,29,-110,44,-162,44v-179,0,-264,-96,-264,-278r0,-332r259,0r0,328","w":896},"\u0448":{"d":"115,0r0,-982r259,0r0,832r203,0r0,-832r259,0r0,832r203,0r0,-832r259,0r0,982r-1183,0","w":1406},"\u0449":{"d":"115,0r0,-982r259,0r0,832r203,0r0,-832r259,0r0,832r203,0r0,-832r259,0r0,832r105,0r0,355r-259,0r0,-205r-1029,0","w":1406},"\u044a":{"d":"887,-326v0,267,-76,326,-348,326r-300,0r0,-832r-176,0r0,-150r435,0r0,382r48,0v247,5,341,45,341,274xm643,-299v0,-99,-6,-142,-91,-146r-54,0r0,290r48,0v89,-4,97,-45,97,-144","w":978},"\u044b":{"d":"873,0r0,-982r259,0r0,982r-259,0xm743,-326v0,267,-76,326,-348,326r-300,0r0,-982r259,0r0,382r48,0v247,5,341,45,341,274xm499,-299v0,-99,-6,-142,-91,-146r-54,0r0,290r48,0v89,-4,97,-45,97,-144","w":1247},"\u044c":{"d":"743,-326v0,267,-76,326,-348,326r-300,0r0,-982r259,0r0,382r48,0v247,5,341,45,341,274xm499,-299v0,-99,-6,-142,-91,-146r-54,0r0,290r48,0v89,-4,97,-45,97,-144","w":833},"\u044d":{"d":"410,21v-243,3,-346,-133,-329,-389r257,0v3,106,-21,234,72,234v35,0,59,-22,72,-64v13,-42,20,-115,20,-218r-177,0r0,-150r177,0v1,-87,-8,-184,-22,-224v-23,-67,-99,-82,-124,-10v-12,35,-12,106,-11,172r-257,0v-9,-250,80,-378,322,-375v278,4,345,131,349,426r0,174v-4,294,-71,420,-349,424","w":831},"\u044e":{"d":"923,21v-291,4,-374,-153,-360,-456r-186,0r0,435r-259,0r0,-982r259,0r0,397r186,0v-8,-284,84,-420,360,-418v260,2,361,111,361,374r0,276v-2,263,-101,371,-361,374xm923,-848v-109,0,-103,65,-103,198v0,139,-10,380,20,469v21,62,144,62,166,0v30,-87,21,-332,21,-469v0,-134,5,-198,-104,-198","w":1375},"\u044f":{"d":"329,-212v0,-103,-2,-191,101,-185r64,0r0,397r259,0r0,-982r-353,0v-183,-2,-330,84,-335,247v-5,153,93,233,232,261v-177,-17,-242,83,-228,262v7,95,4,152,-17,211r264,0v14,-56,13,-117,13,-211xm322,-685v0,-112,14,-139,121,-142r51,0r0,272r-51,0v-102,-3,-121,-28,-121,-130","w":845},"\u0451":{"d":"172,-1407r232,0r0,230r-232,0r0,-230xm504,-1407r232,0r0,230r-232,0r0,-230xm802,-334v12,253,-129,357,-384,355v-253,-2,-339,-122,-340,-384r0,-194v4,-308,73,-446,362,-446v299,0,356,103,362,415r0,143r-467,0v-1,106,7,223,21,256v15,36,41,55,84,55v105,0,108,-85,105,-200r257,0xm545,-650v-4,-127,-1,-198,-105,-198v-41,0,-68,17,-83,50v-15,32,-23,113,-22,203r210,0r0,-55","w":868},"\u0452":{"d":"506,-828v-110,0,-112,90,-112,227r0,601r-259,0r0,-1411r259,0r0,520v56,-75,136,-112,241,-112v156,1,221,95,221,259r0,846v-3,216,-67,284,-282,287v-39,0,-76,-3,-109,-8r0,-168v95,2,132,-16,132,-111r0,-816v-1,-75,-21,-114,-91,-114xm-15,-1133r0,-150r577,0r0,150r-577,0","w":964},"\u0453":{"d":"306,-1103r120,-317r284,0r-189,317r-215,0xm374,0r-259,0r0,-982r642,0r0,150r-383,0r0,832","w":842},"\u0454":{"d":"430,-134v93,0,69,-128,72,-234r257,0v16,255,-85,393,-329,389v-277,-4,-345,-130,-349,-424r0,-174v4,-295,71,-422,349,-426v242,-3,331,124,322,375r-257,0v1,-102,11,-220,-65,-220v-33,0,-55,19,-70,58v-16,40,-23,136,-22,224r177,0r0,150r-177,0v0,103,7,176,20,218v13,42,37,64,72,64","w":831},"\u0455":{"d":"414,-1003v238,0,351,82,343,316r-261,0v4,-87,-4,-157,-82,-161v-95,-6,-110,121,-57,174v20,21,55,42,104,63v125,54,208,103,249,146v41,43,61,104,61,182v-1,214,-129,304,-353,304v-255,0,-363,-92,-354,-345r258,0v-2,109,-5,190,96,190v111,0,128,-144,69,-207v-21,-23,-59,-47,-112,-70v-122,-53,-203,-100,-244,-141v-40,-41,-60,-97,-60,-168v2,-202,128,-283,343,-283","w":831},"\u0456":{"d":"119,0r0,-982r259,0r0,982r-259,0xm118,-1399r260,0r0,234r-260,0r0,-234","w":491},"\u0457":{"d":"-41,-1407r232,0r0,230r-232,0r0,-230xm291,-1407r232,0r0,230r-232,0r0,-230xm112,0r0,-982r259,0r0,982r-259,0","w":491},"\u0458":{"d":"-9,213v106,-2,126,-30,126,-139r0,-1056r259,0r0,1104v6,207,-173,301,-385,256r0,-165xm117,-1399r260,0r0,234r-260,0r0,-234","w":491},"\u0459":{"d":"1226,-326v0,267,-76,326,-348,326r-300,0r0,-832r-184,0r0,502v1,254,-92,360,-346,351r0,-207v91,4,113,-49,113,-144r0,-652r676,0r0,382r48,0v247,5,341,45,341,274xm982,-299v0,-99,-6,-142,-91,-146r-54,0r0,290r48,0v89,-4,97,-45,97,-144","w":1321},"\u045a":{"d":"1225,-326v0,267,-76,326,-348,326r-300,0r0,-435r-203,0r0,435r-259,0r0,-982r259,0r0,397r203,0r0,-397r259,0r0,382r48,0v247,5,341,45,341,274xm981,-299v0,-99,-6,-142,-91,-146r-54,0r0,290r48,0v89,-4,97,-45,97,-144","w":1316},"\u045b":{"d":"506,-828v-110,0,-112,90,-112,227r0,601r-259,0r0,-1411r259,0r0,520v56,-75,136,-112,241,-112v156,1,221,95,221,259r0,744r-259,0r0,-714v-1,-75,-21,-114,-91,-114xm-15,-1133r0,-150r577,0r0,150r-577,0","w":964},"\u045c":{"d":"367,-1103r120,-317r284,0r-189,317r-215,0xm118,0r0,-982r259,0r0,372v125,0,179,-32,179,-156v0,-176,111,-224,303,-216r0,194v-67,-8,-84,27,-84,93v0,81,-34,134,-91,163v197,39,132,364,209,531r-256,0v-31,-81,-45,-188,-57,-296v-12,-109,-79,-135,-203,-128r0,425r-259,0","w":947},"\u045e":{"d":"732,-1414v0,206,-78,317,-275,317v-197,0,-275,-111,-275,-317r177,0v3,113,7,185,98,185v91,0,95,-73,98,-185r177,0xm313,-982r146,605r151,-605r250,0r-351,1347r-247,0r86,-357r-294,-990r259,0"},"\u045f":{"d":"115,0r0,-982r259,0r0,832r203,0r0,-832r259,0r0,982r-232,0r0,205r-259,0r0,-205r-230,0","w":944},"\u0490":{"d":"431,0r-289,0r0,-1411r528,0r0,-282r158,0r0,492r-397,0r0,1201","w":908},"\u0491":{"d":"374,0r-259,0r0,-982r476,0r0,-196r132,0r0,346r-349,0r0,832","w":799},"\u2013":{"d":"79,-581r834,0r0,171r-834,0r0,-171","w":982},"\u2014":{"d":"94,-581r1174,0r0,171r-1174,0r0,-171","w":1360},"\u2018":{"d":"384,-1411r-56,458r-255,0r133,-458r178,0","w":453},"\u2019":{"d":"88,-953r56,-458r255,0r-133,458r-178,0","w":453},"\u201c":{"d":"380,-1411r-56,458r-255,0r133,-458r178,0xm715,-1411r-56,458r-255,0r133,-458r178,0","w":793},"\u201d":{"d":"84,-953r56,-458r255,0r-133,458r-178,0xm419,-953r56,-458r255,0r-133,458r-178,0","w":793},"\u2026":{"d":"113,-251r236,0r0,251r-236,0r0,-251xm563,-251r236,0r0,251r-236,0r0,-251xm1014,-251r236,0r0,251r-236,0r0,-251","w":1360},"\u2122":{"d":"519,-781r0,-607r160,0r112,486r112,-486r160,0r0,607r-89,0r0,-559r-129,559r-108,0r-129,-559r0,559r-89,0xm63,-1388r393,0r0,89r-152,0r0,518r-89,0r0,-518r-152,0r0,-89","w":1246},"\u00a0":{"w":453}}});
/*!
 * The following copyright notice may not be removed under any circumstances.
 * 
 * Copyright:
 * Copyright (c) 1992-95 ElseWare.  All rights reserved.
 * 
 * Trademark:
 * Univers Condensed is a trademark of Haas.
 */
Cufon.registerFont({"w":831,"face":{"font-family":"Univers Condensed","font-weight":400,"font-style":"italic","font-stretch":"condensed","units-per-em":"2048","panose-1":"2 11 6 6 3 5 2 12 2 4","ascent":"1638","descent":"-410","x-height":"20","bbox":"-286 -1833 1799 512","underline-thickness":"105","underline-position":"-355","slope":"-16","unicode-range":"U+0020-U+2122"},"glyphs":{" ":{"w":453},"!":{"d":"191,-321r291,-1094r193,0r-363,1094r-121,0xm116,-196r202,0r-60,196r-202,0","w":604},"\"":{"d":"287,-967r102,-444r203,0r-169,444r-136,0xm591,-967r102,-444r203,0r-169,444r-136,0","w":755},"#":{"d":"944,-1425r-360,1496r-129,0r360,-1496r129,0xm608,-1425r-360,1496r-129,0r360,-1496r129,0xm245,-987r717,0r-27,113r-717,0xm129,-502r717,0r-27,113r-717,0","w":944},"$":{"d":"658,-1212v158,1,245,49,248,192v0,32,-5,68,-15,107r-174,0v26,-111,24,-168,-79,-168v-73,0,-115,49,-133,112v-9,31,-6,59,7,86v13,27,44,61,91,104v82,75,134,136,153,183v9,22,14,48,14,75v0,184,-117,321,-302,321v-132,0,-221,-25,-268,-76v-53,-58,-50,-147,-20,-236r176,0v-31,124,-25,188,88,188v78,0,124,-64,140,-138v20,-93,-26,-113,-89,-174v-83,-81,-138,-141,-159,-187v-11,-25,-18,-52,-18,-82v0,-197,130,-308,340,-307xm507,-324r-15,49r-82,324r-184,0r119,-373r162,0xm565,-1081r91,-353r184,0r-113,353r-162,0","w":944},"%":{"d":"421,-691v-168,-1,-225,-67,-171,-250v38,-130,88,-330,159,-402v65,-65,287,-74,332,4v23,40,24,104,-3,194v-38,127,-84,334,-156,401v-37,34,-90,53,-161,53xm568,-1298v-76,0,-95,72,-118,154v-26,91,-79,237,-80,326v11,47,92,34,116,-4v46,-72,80,-223,111,-322v19,-61,25,-102,21,-123v-4,-21,-21,-31,-50,-31xm154,48r1005,-1472r136,0r-1005,1472r-136,0xm915,-21v-169,-1,-225,-67,-172,-250v38,-130,87,-330,159,-402v65,-65,288,-74,332,4v23,40,24,104,-3,194v-38,127,-84,334,-155,401v-37,34,-90,53,-161,53xm1061,-628v-76,0,-94,72,-118,154v-27,91,-79,237,-80,326v11,48,93,34,117,-4v46,-72,79,-223,110,-322v19,-61,25,-102,21,-123v-4,-21,-21,-31,-50,-31","w":1360},"&":{"d":"463,-812v-51,-101,-81,-149,-85,-270v-5,-187,159,-340,347,-340v156,0,284,96,283,244v0,82,-30,156,-89,223v-49,55,-130,116,-242,182r192,362v49,-103,91,-255,100,-382r189,0v-17,212,-91,423,-196,556r126,237r-192,0r-58,-108v-81,67,-213,128,-340,128v-226,0,-410,-142,-410,-358v0,-215,194,-409,375,-474xm282,-361v-3,132,99,227,232,227v96,0,193,-58,248,-118r-241,-452v-138,78,-234,162,-239,343xm718,-1272v-89,0,-173,86,-169,177v3,97,24,121,65,204v70,-41,122,-79,156,-115v44,-47,66,-98,66,-154v0,-64,-53,-112,-118,-112","w":1246},"'":{"d":"287,-967r98,-444r203,0r-163,444r-138,0","w":453},"(":{"d":"48,184v-7,-271,23,-608,83,-802v68,-223,275,-615,406,-790r129,0v-232,393,-372,700,-459,1195v-23,133,-31,266,-30,397r-129,0","w":453},")":{"d":"474,-1408v5,270,-25,607,-84,802v-68,222,-275,615,-405,790r-129,0v230,-394,372,-700,458,-1195v23,-133,31,-266,31,-397r129,0","w":453},"*":{"d":"843,-1362r-138,194r235,-25r0,125r-235,-26r141,189r-108,65r-99,-216r-94,218r-110,-62r138,-194r-235,25r0,-125r235,26r-141,-189r108,-65r99,216r94,-218","w":944},"+":{"d":"601,-511r-337,0r0,-124r337,0r0,-337r124,0r0,337r337,0r0,124r-337,0r0,337r-124,0r0,-337","w":1360},",":{"d":"-119,213r222,-443r206,0r-299,443r-129,0","w":453},"-":{"d":"121,-586r272,0r-46,156r-272,0","w":453},".":{"d":"65,-231r212,0r-67,231r-212,0","w":453},"\/":{"d":"659,-1411r-683,1566r-142,0r683,-1566r142,0","w":453},"0":{"d":"686,-1425v214,0,346,66,346,259v0,47,-10,101,-28,161r-187,606v-46,151,-101,259,-165,323v-64,64,-147,96,-250,96v-155,0,-259,-33,-309,-101v-61,-84,-46,-200,-9,-318r187,-606v47,-154,103,-262,165,-325v62,-63,145,-95,250,-95xm391,-133v143,0,185,-107,228,-246r187,-606v33,-107,41,-181,26,-223v-15,-42,-58,-64,-129,-64v-55,0,-104,25,-145,76v-40,50,-77,133,-112,246r-169,548v-50,175,-58,269,114,269","w":944},"1":{"d":"263,0r339,-1170v-72,60,-131,94,-236,132r59,-204v128,-46,181,-82,276,-169r162,0r-409,1411r-191,0","w":944},"2":{"d":"690,-1425v195,0,303,76,302,264v0,153,-64,308,-191,466v-110,137,-300,318,-573,541r528,0r-44,154r-742,0r49,-169v262,-213,459,-402,590,-565v131,-163,196,-301,196,-414v-1,-90,-38,-127,-128,-127v-117,0,-172,97,-191,213r-194,0v42,-239,137,-363,398,-363","w":944},"3":{"d":"686,-722v91,28,131,63,132,172v1,62,-17,156,-47,256v-54,184,-169,314,-386,314v-288,0,-400,-69,-340,-363r16,-56r196,0v-19,54,-42,183,-16,219v21,29,58,47,119,47v150,0,209,-123,250,-265v67,-228,-23,-255,-239,-255r46,-156v112,-1,207,7,267,-55v48,-49,140,-259,100,-357v-15,-37,-58,-54,-120,-54v-123,0,-174,95,-208,211r-194,0v73,-238,152,-361,428,-361v193,0,308,59,308,235v0,153,-89,359,-168,412v-37,25,-84,45,-144,56","w":944},"4":{"d":"27,-344r64,-207r704,-855r267,0r-279,908r145,0r-48,154r-145,0r-105,344r-179,0r105,-344r-529,0xm604,-498r225,-732r-594,732r369,0","w":944},"5":{"d":"703,-930v147,4,217,55,217,195v0,204,-138,580,-229,663v-63,58,-153,92,-278,92v-258,0,-407,-80,-321,-344r16,-56r194,0v-18,51,-42,171,-14,205v21,26,59,42,123,42v61,0,110,-25,152,-71v45,-50,91,-167,121,-277v31,-115,44,-191,32,-233v-12,-42,-50,-63,-115,-63v-118,0,-178,96,-228,196r-193,0r254,-829r675,0r-45,154r-493,0r-121,415v68,-51,163,-91,253,-89","w":944},"6":{"d":"648,-891v154,0,231,56,233,200v2,96,-48,232,-75,321v-46,151,-98,252,-155,305v-56,52,-141,78,-258,78v-166,0,-277,-34,-315,-110v-59,-118,-25,-235,23,-390r180,-584v83,-244,142,-341,433,-347v244,-5,383,115,287,373r-176,0v33,-161,17,-219,-127,-219v-151,0,-193,94,-236,235r-71,232v86,-62,172,-94,257,-94xm305,-502v-22,77,-89,244,-53,314v37,70,229,69,278,2v57,-50,103,-217,134,-322v41,-136,47,-232,-83,-232v-150,0,-237,107,-276,238","w":944},"7":{"d":"91,0r824,-1256r-572,0r45,-154r751,0r-45,156r-785,1254r-218,0","w":944},"8":{"d":"412,20v-234,0,-399,-81,-354,-308v32,-165,129,-362,194,-405v34,-23,81,-44,144,-56v-147,-45,-113,-251,-65,-391v58,-169,173,-284,380,-285v195,-1,329,61,329,238v0,165,-82,339,-164,407v-31,26,-69,44,-114,54v86,41,124,136,97,256v-35,155,-116,334,-191,400v-66,58,-150,90,-256,90xm484,-998v-26,109,10,197,126,189v151,-10,192,-148,230,-293v27,-105,-22,-165,-135,-165v-152,0,-190,140,-221,269xm674,-544v0,-86,-57,-108,-152,-109v-55,0,-102,21,-140,63v-55,61,-122,210,-131,342v-10,151,222,143,290,56v44,-56,133,-216,133,-352","w":944},"9":{"d":"432,-541v-151,0,-238,-73,-240,-220v-1,-90,42,-204,67,-285v44,-146,96,-244,153,-295v57,-51,146,-76,266,-76v164,0,273,36,316,115v61,113,33,236,-13,385r-180,584v-83,246,-145,343,-441,347v-280,4,-397,-120,-287,-412r179,0v-52,181,-56,266,122,266v156,0,201,-98,246,-243r77,-250v-89,56,-177,84,-265,84xm777,-916v22,-73,87,-222,43,-296v-22,-35,-68,-52,-138,-52v-185,0,-228,197,-275,354v-42,138,-19,218,110,218v152,0,221,-92,260,-224","w":944},":":{"d":"65,-231r212,0r-67,231r-212,0xm281,-977r212,0r-67,231r-212,0","w":453},";":{"d":"-119,213r216,-444r206,0r-299,444r-123,0xm275,-977r212,0r-67,231r-212,0","w":453},"<":{"d":"410,-542r0,-144r1225,-549r0,145r-1066,475r1066,479r0,145","w":2039},"=":{"d":"266,-509r798,0r0,125r-798,0r0,-125xm266,-728r798,0r0,125r-798,0r0,-125","w":1360},">":{"d":"1635,-542r-1225,551r0,-145r1066,-479r-1066,-475r0,-145r1225,549r0,144","w":2039},"?":{"d":"273,-1037v56,-256,123,-387,397,-392v220,-4,314,100,248,334v-20,68,-52,131,-98,189v-46,58,-141,151,-278,288v-86,86,-78,124,-127,296r-142,0v56,-209,57,-285,156,-396v125,-139,209,-225,243,-266v34,-41,56,-78,66,-111v35,-126,27,-192,-91,-192v-51,0,-91,20,-121,59v-30,39,-54,102,-71,191r-182,0xm205,-196r204,0r-56,196r-204,0","w":868},"@":{"d":"735,-979v68,-2,116,42,143,113r27,-93r173,0r-145,500v-26,89,-39,145,-37,169v2,24,19,36,51,36v17,0,36,-12,48,-38v67,-139,115,-358,163,-522v94,-321,59,-468,-247,-468v-296,0,-458,143,-527,385r-175,604v-93,333,-13,438,297,442v56,1,261,-23,306,-34r-53,146v-71,27,-251,35,-373,35v-283,0,-454,-243,-364,-552r200,-690v89,-307,301,-482,682,-483v394,-1,553,190,430,615r-114,393v-33,115,-71,197,-114,244v-41,47,-96,70,-165,70v-94,-1,-149,-48,-166,-141v-43,71,-126,143,-212,141v-197,-4,-274,-93,-208,-305v73,-234,97,-557,380,-567xm824,-773v-16,-74,-114,-60,-154,-14v-72,85,-96,255,-135,376v-28,87,-22,154,59,154v35,0,64,-16,89,-45v51,-59,96,-220,125,-323v18,-64,23,-113,16,-148","w":1360},"A":{"d":"684,-1411r245,0r-92,1411r-198,0r26,-317r-383,0r-161,317r-199,0xm738,-1211r-374,735r315,0","w":1057},"B":{"d":"691,-724v138,24,209,61,212,205v1,51,-15,128,-36,197v-63,213,-208,322,-478,322r-406,0r409,-1411r358,0v193,4,301,59,301,236v0,149,-67,326,-165,388v-52,33,-116,57,-195,63xm530,-1253r-131,448v130,0,275,7,343,-51v43,-37,81,-102,104,-187v45,-168,5,-210,-154,-210r-162,0xm353,-647r-142,489v142,-3,302,15,377,-56v42,-40,81,-113,106,-204v49,-179,-9,-227,-178,-229r-163,0","w":1020},"C":{"d":"751,-1429v202,0,302,54,306,236v1,59,-11,129,-36,212r-195,0v33,-112,42,-188,27,-229v-15,-41,-59,-61,-133,-61v-60,0,-112,24,-156,71v-43,47,-78,117,-105,212r-169,579v-44,157,-43,271,102,271v179,0,238,-142,279,-302r189,0r-16,56v-52,271,-169,404,-475,404v-196,0,-304,-68,-307,-253v0,-53,10,-116,31,-187r147,-507v54,-187,119,-317,194,-391v75,-74,181,-111,317,-111","w":1020},"D":{"d":"-19,0r409,-1411r330,0v175,0,286,38,333,115v21,34,31,80,31,138v-3,182,-95,424,-142,594v-65,238,-138,390,-209,460v-71,70,-195,104,-370,104r-382,0xm219,-158v144,3,317,-3,375,-64v88,-92,176,-445,231,-629v53,-176,67,-287,58,-333v-17,-85,-223,-68,-345,-69","w":1057},"E":{"d":"-19,0r409,-1411r639,0r-48,159r-444,0r-130,448r418,0r-46,159r-418,0r-141,486r460,0r-48,159r-651,0","w":868},"F":{"d":"-10,0r409,-1411r602,0r-48,159r-407,0r-130,448r389,0r-46,159r-389,0r-187,645r-193,0"},"G":{"d":"419,20v-215,0,-343,-66,-343,-262v0,-51,10,-109,29,-175r147,-507v57,-199,123,-333,198,-402v75,-69,190,-103,347,-103v281,0,366,117,278,424r-195,0v43,-191,38,-266,-139,-266v-69,0,-123,22,-164,65v-41,43,-76,118,-107,223r-168,579v-54,190,-30,273,149,273v57,0,119,-13,185,-37r115,-421r-204,0r46,-159r408,0r-206,708v-122,39,-247,60,-376,60","w":1057},"H":{"d":"-15,0r409,-1411r193,0r-176,607r413,0r176,-607r193,0r-409,1411r-193,0r187,-645r-413,0r-187,645r-193,0","w":1057},"I":{"d":"-19,0r409,-1411r193,0r-409,1411r-193,0","w":453},"J":{"d":"246,-136v152,0,190,-106,233,-254r296,-1021r193,0r-319,1100v-70,226,-162,325,-439,328v-210,2,-313,-100,-252,-322r31,-111r192,0v-14,61,-61,187,-32,242v14,25,46,38,97,38","w":868},"K":{"d":"600,-1411r-409,1411r-193,0r409,-1411r193,0xm600,0r-188,-762r530,-649r210,0r-543,661r190,750r-199,0","w":1020},"L":{"d":"-15,0r409,-1411r193,0r-363,1252r422,0r-48,159r-613,0","w":793},"M":{"d":"701,-1411r-60,1076r567,-1076r313,0r-409,1411r-193,0r366,-1229r-649,1229r-190,0r67,-1211r-351,1211r-183,0r409,-1411r313,0","w":1397},"N":{"d":"517,0r-20,-1197r-347,1197r-175,0r409,-1411r290,0r20,1214r352,-1214r175,0r-409,1411r-295,0","w":1095},"O":{"d":"409,20v-215,0,-342,-67,-342,-263v0,-51,8,-109,29,-175v89,-281,180,-751,340,-908v70,-70,179,-103,325,-103v215,0,341,68,341,264v0,51,-8,110,-29,176v-89,281,-180,749,-340,906v-70,69,-178,103,-324,103xm431,-138v164,0,231,-128,276,-283r168,-579v50,-184,38,-271,-137,-271v-164,0,-230,128,-275,283r-169,579v-51,184,-37,271,137,271","w":1057},"P":{"d":"734,-1411v196,4,298,57,302,236v1,57,-15,138,-37,211v-64,218,-184,346,-443,350r-192,0r-178,614r-193,0r409,-1411r332,0xm410,-772v131,-3,248,17,318,-60v40,-44,76,-113,99,-196v45,-164,12,-223,-141,-225r-136,0","w":944},"Q":{"d":"758,-1429v216,0,340,70,340,266v0,52,-10,111,-29,178r-148,507v-39,139,-105,251,-197,336r200,-14r-45,156v-168,-4,-317,20,-473,20v-215,0,-342,-67,-342,-263v0,-51,8,-109,29,-175v89,-281,179,-751,339,-908v70,-70,180,-103,326,-103xm735,-1271v-164,0,-230,128,-275,283r-169,579v-51,184,-37,271,137,271v164,0,231,-128,276,-283r168,-579v50,-184,38,-271,-137,-271","w":1057},"R":{"d":"765,-1411v201,3,330,57,330,236v0,152,-83,317,-166,384v-58,47,-132,73,-223,74v160,29,213,108,152,314v-23,74,-43,141,-53,202r-23,134v-4,26,-5,48,-6,66r-197,0v27,-146,46,-262,90,-402v55,-177,20,-242,-151,-244r-145,0r-199,647r-189,0r434,-1411r346,0xm421,-805v141,-3,279,17,358,-57v44,-41,82,-103,105,-182v48,-169,-12,-207,-173,-209r-152,0","w":1020},"S":{"d":"747,-1429v194,1,292,82,296,266v0,46,-7,97,-20,154r-195,0v38,-164,47,-262,-103,-262v-143,0,-228,94,-263,217v-13,47,-10,89,12,126v22,37,68,80,139,131v119,85,192,160,221,227v13,31,20,67,20,108v0,293,-198,486,-503,482v-210,-3,-319,-49,-325,-239v-2,-61,20,-158,40,-221r186,0v-22,65,-52,209,-18,246v22,37,70,56,146,56v151,0,236,-106,273,-239v15,-51,12,-95,-7,-132v-19,-37,-62,-78,-127,-125v-123,-87,-200,-163,-231,-227v-16,-33,-24,-70,-24,-113v0,-285,179,-457,483,-455","w":982},"T":{"d":"248,0r363,-1252r-346,0r48,-159r882,0r-48,159r-343,0r-363,1252r-193,0","w":982},"U":{"d":"270,-254v0,90,50,115,150,115v67,0,124,-25,171,-75v47,-50,86,-124,115,-224r282,-973r193,0r-286,985v-48,167,-111,282,-188,348v-76,65,-187,98,-334,98v-191,0,-297,-71,-299,-252v0,-56,11,-121,32,-194r286,-985r198,0r-294,1013v-17,59,-26,107,-26,144","w":1057},"V":{"d":"527,-1411r-148,1207r595,-1207r198,0r-739,1411r-233,0r130,-1411r197,0","w":944},"W":{"d":"196,0r122,-1411r187,0r-116,1089r458,-1089r237,0r-130,1059r461,-1059r185,0r-645,1411r-216,0r139,-1101r-466,1101r-216,0","w":1397},"X":{"d":"641,0r-101,-525r-394,525r-216,0r560,-745r-134,-666r196,0r93,475r349,-475r210,0r-508,689r141,722r-196,0","w":1057},"Y":{"d":"388,-560r-76,-851r200,0r26,633r407,-633r209,0r-573,851r-172,560r-193,0","w":944},"Z":{"d":"-7,-196r854,-1056r-525,0r48,-159r739,0r-56,186r-862,1066r562,0r-48,159r-768,0","w":944},"[":{"d":"-105,184r489,-1592r299,0r-29,92r-159,0r-432,1408r159,0r-28,92r-299,0","w":453},"\\":{"d":"390,155r-193,-1566r137,0r193,1566r-137,0","w":604},"]":{"d":"107,184r-299,0r28,-92r159,0r432,-1408r-159,0r29,-92r299,0","w":453},"^":{"d":"99,-1087v187,-140,260,-228,359,-449r106,0v99,222,173,310,360,449r0,94v-182,-84,-303,-156,-414,-260v-110,105,-230,175,-411,260r0,-94","w":1020},"_":{"d":"0,512r0,-105r1020,0r0,105r-1020,0","w":1020},"`":{"d":"587,-1103r-134,-307r205,0r75,307r-146,0","w":944},"a":{"d":"441,-87v-53,65,-145,109,-243,107v-127,-2,-190,-45,-192,-164v0,-48,14,-118,35,-184v63,-197,172,-273,427,-275v76,-1,113,3,111,10v16,-62,68,-192,47,-241v-12,-29,-42,-44,-93,-44v-102,0,-131,71,-163,166r-182,0v40,-166,151,-290,340,-290v175,0,276,53,276,210v0,46,-10,99,-29,158r-195,634r-165,0xm277,-102v181,0,215,-214,264,-369v3,-9,-19,-11,-64,-11v-172,2,-224,57,-265,195v-33,111,-42,185,65,185"},"b":{"d":"624,-1002v130,0,190,47,192,169v0,50,-11,112,-32,185r-115,396v-49,159,-120,272,-301,272v-92,0,-158,-42,-197,-124r-30,104r-178,0r409,-1411r187,0r-144,496v61,-58,131,-87,209,-87xm319,-102v113,0,156,-103,189,-216r100,-345v23,-79,30,-135,21,-168v-9,-33,-36,-49,-81,-49v-51,0,-91,24,-128,70v-42,52,-93,207,-128,319v-47,152,-74,253,-70,308v3,54,36,81,97,81"},"c":{"d":"513,-1002v161,0,251,63,253,214v1,33,-4,71,-15,113r-180,0v20,-69,25,-120,16,-153v-24,-76,-135,-56,-175,4v-70,105,-120,335,-166,482v-28,88,-34,151,-28,186v12,71,129,61,170,15v28,-31,55,-95,70,-154r179,0v-24,103,-60,198,-128,248v-57,43,-133,67,-232,67v-152,-1,-238,-67,-238,-215v0,-159,74,-322,114,-464v57,-202,139,-343,360,-343","w":793},"d":{"d":"431,-86v-58,66,-140,107,-226,106v-127,-2,-194,-58,-192,-186v2,-142,71,-319,107,-450v39,-142,91,-239,140,-299v90,-111,329,-121,397,8r146,-504r187,0r-409,1411r-174,0xm512,-877v-50,0,-92,22,-125,65v-60,77,-113,292,-152,423v-33,115,-46,191,-39,229v7,38,37,58,91,58v43,0,80,-22,114,-62v68,-81,128,-301,168,-441v29,-104,41,-174,33,-213v-8,-39,-38,-59,-90,-59"},"e":{"d":"644,-285v-50,215,-119,305,-367,305v-163,0,-257,-66,-257,-221v0,-142,64,-290,101,-416v72,-247,148,-385,423,-385v155,0,238,68,238,217v0,115,-55,249,-82,352r-448,0v-23,76,-69,244,-51,277v9,35,43,52,101,52v103,0,139,-83,169,-181r173,0xm551,-556v24,-77,67,-239,52,-270v-7,-35,-37,-52,-90,-52v-48,0,-87,20,-120,59v-37,43,-79,168,-105,263r263,0","w":793},"f":{"d":"474,-847r-243,847r-187,0r248,-847r-135,0r39,-135r136,0v35,-130,101,-324,157,-376v62,-58,205,-80,321,-54r-34,115v-63,-9,-128,2,-160,39v-37,43,-79,190,-104,276r165,0r-39,135r-164,0","w":604},"g":{"d":"202,-14v-129,-1,-201,-55,-201,-179v0,-114,53,-235,81,-337v52,-186,108,-310,160,-375v52,-65,126,-97,222,-97v83,0,147,37,194,113r27,-93r168,0r-274,941v-47,165,-106,274,-164,338v-91,99,-393,127,-490,17v-50,-57,-41,-158,-12,-238r162,0v-14,41,-28,124,-6,152v17,22,46,35,92,35v54,0,96,-24,132,-67v38,-46,84,-181,115,-290v-60,53,-129,80,-206,80xm493,-873v-48,0,-88,26,-123,74v-59,82,-121,317,-162,457v-20,69,-26,120,-17,155v9,35,31,52,68,52v55,0,99,-20,137,-59v75,-76,130,-282,170,-420v27,-92,36,-157,25,-198v-11,-41,-44,-61,-98,-61"},"h":{"d":"558,-1411r-147,508v67,-67,142,-99,226,-99v144,0,208,112,162,271r-212,731r-179,0r209,-722v27,-92,19,-155,-66,-155v-53,0,-98,25,-135,75v-37,50,-73,134,-107,251r-160,551r-187,0r409,-1411r187,0"},"i":{"d":"-46,0r285,-982r187,0r-285,982r-187,0xm359,-1407r192,0r-56,193r-192,0","w":378},"j":{"d":"244,-982r187,0r-285,979v-45,167,-91,271,-130,320v-48,61,-186,80,-302,65r39,-122v59,7,96,3,126,-41v21,-29,40,-79,60,-147xm365,-1407r192,0r-56,193r-192,0","w":378},"k":{"d":"605,-1411r-434,1411r-181,0r434,-1411r181,0xm471,0r-125,-570r353,-412r202,0r-366,427r117,555r-181,0"},"l":{"d":"-48,0r409,-1411r187,0r-409,1411r-187,0","w":378},"m":{"d":"1028,-1002v133,3,201,45,204,168v0,38,-8,83,-23,136r-202,698r-187,0r212,-731v25,-86,17,-146,-62,-146v-50,0,-92,25,-128,75v-36,50,-71,134,-105,251r-160,551r-183,0r212,-730v25,-87,17,-147,-63,-147v-51,0,-93,25,-129,75v-36,50,-71,134,-105,251r-160,551r-187,0r285,-982r178,0r-28,94v65,-74,145,-115,235,-114v103,1,156,42,164,132v55,-79,145,-134,232,-132","w":1246},"n":{"d":"441,-982r-27,87v65,-71,138,-107,221,-107v189,2,226,127,163,331r-206,671r-179,0r210,-685v20,-64,25,-112,16,-144v-9,-32,-33,-48,-71,-48v-60,0,-110,25,-148,75v-38,50,-67,135,-103,251r-169,551r-187,0r302,-982r178,0"},"o":{"d":"301,20v-166,-1,-263,-66,-263,-224v0,-142,66,-287,100,-413v38,-142,92,-241,154,-299v62,-58,148,-86,257,-86v167,1,262,67,262,225v0,142,-66,289,-100,415v-38,141,-92,238,-154,296v-61,57,-146,86,-256,86xm438,-162v70,-90,119,-316,162,-456v31,-100,39,-170,29,-206v-10,-36,-43,-54,-100,-54v-47,0,-88,19,-119,59v-71,90,-118,316,-161,456v-31,100,-39,169,-29,205v10,36,43,54,100,54v48,0,87,-19,118,-58"},"p":{"d":"616,-1002v124,0,188,65,187,189v1,47,-8,102,-27,165r-115,396v-49,159,-120,272,-301,272v-87,0,-152,-35,-195,-102r-129,449r-187,0r391,-1349r174,0r-26,88v63,-70,140,-109,228,-108xm311,-102v113,0,156,-103,189,-216r100,-345v23,-79,30,-135,21,-168v-9,-33,-36,-49,-81,-49v-51,0,-91,24,-128,70v-42,52,-93,207,-128,319v-47,152,-74,253,-70,307v4,54,36,82,97,82"},"q":{"d":"231,20v-140,0,-208,-43,-208,-171v0,-141,74,-333,111,-465v39,-142,90,-239,140,-299v95,-116,352,-121,412,22r26,-89r168,0r-391,1349r-174,0r119,-413v-56,44,-124,66,-203,66xm526,-877v-44,0,-81,24,-116,69v-63,83,-112,287,-152,419v-33,115,-47,191,-40,229v7,38,38,58,92,58v50,0,92,-21,124,-62v68,-84,117,-305,158,-441v31,-103,40,-174,31,-213v-9,-39,-42,-59,-97,-59"},"r":{"d":"610,-818v-212,3,-251,80,-305,267r-160,551r-183,0r285,-982r174,0r-26,105v69,-74,164,-125,262,-123","w":566},"s":{"d":"493,-1002v165,0,259,45,264,190v1,36,-7,78,-22,125r-189,0v23,-74,30,-124,22,-151v-14,-52,-126,-50,-162,-8v-29,33,-79,113,-43,177v13,25,43,59,88,101v79,73,130,135,151,186v11,26,17,55,17,87v0,198,-147,311,-353,315v-188,4,-303,-100,-254,-285r12,-39r182,0v-31,74,-33,205,64,200v91,-4,136,-61,155,-144v22,-97,-19,-117,-81,-178v-80,-78,-136,-139,-159,-188v-13,-29,-21,-59,-21,-91v0,-191,128,-297,329,-297","w":755},"t":{"d":"369,13v-31,5,-64,7,-97,7v-217,-6,-227,-99,-162,-323r158,-544r-129,0r39,-135r129,0r51,-177r205,-76r-73,253r157,0r-39,135r-157,0r-158,544v-33,119,-42,192,70,199v15,0,29,-2,44,-5","w":604},"u":{"d":"199,20v-110,0,-174,-61,-175,-173v0,-37,7,-80,21,-127r204,-702r187,0r-211,727v-26,88,-19,150,63,150v51,0,96,-25,132,-75v36,-50,71,-134,105,-251r160,-551r183,0r-285,982r-172,0r33,-104v-63,75,-150,124,-245,124"},"v":{"d":"364,-982r-63,783r394,-783r184,0r-511,982r-233,0r53,-982r176,0","w":793},"w":{"d":"131,0r61,-982r169,0r-56,795r383,-795r233,0r-76,783r380,-783r177,0r-488,982r-239,0r68,-758r-379,758r-233,0","w":1322},"x":{"d":"416,0r-61,-331r-247,331r-183,0r375,-515r-87,-467r170,0r57,322r235,-322r187,0r-367,495r91,487r-170,0","w":793},"y":{"d":"364,-982r-40,742r404,-742r189,0r-774,1349r-190,0r201,-346r30,-1003r180,0"},"z":{"d":"-16,-172r537,-681r-339,0r38,-129r521,0r-50,172r-537,681r339,0r-37,129r-521,0","w":680},"{":{"d":"548,477v-301,4,-360,-84,-289,-409v26,-118,96,-335,61,-446v-17,-54,-57,-81,-118,-81r40,-169v67,0,119,-26,160,-74v68,-79,115,-308,150,-454v43,-177,94,-290,154,-341v60,-51,170,-73,331,-68r-38,160v-80,-3,-136,12,-169,43v-62,58,-103,284,-134,408v-44,179,-95,297,-158,354v-29,26,-68,46,-116,61v119,65,124,181,77,405v-21,102,-96,308,-53,400v17,37,66,53,140,51","w":906},"|":{"d":"458,512r0,-2048r105,0r0,2048r-105,0","w":1020},"}":{"d":"-98,477r38,-160v181,-2,215,-81,255,-249r48,-202v57,-214,112,-339,249,-429v-80,-83,-92,-214,-52,-391v22,-100,96,-328,60,-408v-15,-33,-66,-46,-147,-43r38,-160v272,-7,357,115,289,409v-27,117,-98,352,-68,455v15,52,54,83,119,94r-36,149v-221,36,-255,306,-308,526v-38,160,-92,269,-162,328v-69,59,-177,86,-323,81","w":906},"~":{"d":"713,-583v-131,0,-184,48,-268,122r-31,-33v62,-89,117,-151,166,-187v49,-36,101,-54,158,-54v209,0,481,135,662,135v127,0,177,-50,250,-130r34,36v-76,152,-133,240,-324,244v-224,5,-447,-133,-647,-133","w":2039},"\u00d7":{"d":"692,-482r-277,278r-92,-92r278,-277r-278,-277r92,-92r277,278r277,-278r92,92r-278,277r278,277r-92,92","w":1360},"\u0415":{"d":"-19,0r409,-1411r639,0r-48,159r-444,0r-130,448r418,0r-46,159r-418,0r-141,486r460,0r-48,159r-651,0","w":868},"\u0401":{"d":"520,-1745r196,0r-59,182r-196,0xm847,-1745r196,0r-59,182r-196,0xm-19,0r409,-1411r639,0r-48,159r-444,0r-130,448r418,0r-46,159r-418,0r-141,486r460,0r-48,159r-651,0","w":868},"\u0402":{"d":"629,-150v93,26,136,9,193,-72v51,-73,160,-362,133,-484v-30,